2447 64
1358 0.020144 -0.049924 -0.366439 0.690165 -0.129931 0.443524 0.245908 0.026661 0.254759 0.132471 -0.517541 0.668254 0.033532 0.039825 0.189915 -0.254914 0.768206 -0.553570 -0.561360 -0.687000 0.667913 -0.185372 -0.049621 -0.844284 0.075399 0.465782 0.626579 0.997462 -0.301994 0.426655 -0.581188 -0.071786 -0.284488 0.181585 -0.410222 -0.311967 0.101564 0.379077 -0.081586 0.816453 0.319782 0.370053 0.627887 0.326513 0.283358 -0.072944 -0.051724 -0.746761 -0.139738 -0.094717 -0.238633 0.962180 -0.310055 -0.109871 0.254392 -0.049152 0.017856 -0.008022 0.435930 -0.367060 -0.070054 -0.349669 -0.420271 -0.557723
1701 -0.577057 -0.998636 0.172819 -0.095117 -0.198009 -0.240531 0.258123 0.222242 0.576322 0.178138 0.619558 -0.086089 -0.388875 0.131393 -0.093455 -0.620893 0.128859 -0.113499 -0.483335 -0.289051 -0.191505 0.839996 0.510907 -0.509485 -0.136166 0.299984 0.726775 -0.117605 -0.331106 -0.111607 -0.965262 0.658208 -0.560137 -0.010378 0.133321 0.400617 -0.449565 -0.111395 -0.561907 0.342375 1.148997 0.248288 0.087925 -0.053798 -0.121060 -0.969401 -0.135375 -0.399661 -0.578247 -0.072194 -0.413541 -0.276876 0.383922 -0.685180 -0.396238 -0.085296 0.038066 0.609970 -0.552316 -0.190991 -0.107453 0.789074 0.388584 0.107794
1623 -0.397756 0.345027 0.319175 -0.305144 -0.268576 -0.487564 -0.418172 0.176687 0.221905 0.335393 0.435448 -0.031412 0.193873 0.695300 -0.326826 0.232409 -0.727869 0.026544 -0.779143 -0.507575 0.054617 -0.168468 -0.950756 -0.713827 -0.653353 0.324878 0.438993 0.535049 0.533837 0.069878 -0.928589 -0.070650 -0.200118 0.640181 0.708843 -0.368999 -0.180429 0.789002 0.020243 0.709951 0.261892 -0.253922 0.101032 0.073985 0.492850 -0.431591 -0.219405 -0.845089 1.038726 0.296740 -0.444890 -0.860336 -0.116262 0.139691 -0.240834 -0.452658 0.011340 -0.652544 -0.056850 -0.464787 -0.829398 1.374868 -0.041835 0.038572
2045 0.009999 -0.518380 0.318292 0.244497 -0.853082 -0.450205 0.216863 0.571494 0.173592 -0.324122 -0.212687 -0.690184 -0.114374 -0.221708 -0.158994 -0.263650 -0.167606 0.274006 -0.538859 -0.909064 -0.674958 -0.111584 0.634690 -0.054169 -0.595620 0.316672 0.042222 -0.138914 0.246045 0.329063 -0.324321 1.063163 -0.900930 0.091472 -0.367999 -0.203505 0.252793 -0.836605 -1.030590 0.540222 0.555844 0.317011 0.373620 0.054156 -0.135589 -0.170810 -0.199562 0.119349 0.233414 -0.636874 0.137534 0.645358 0.354221 0.466334 0.953574 -0.237009 -0.155389 -0.581680 0.345824 0.403045 0.210328 -0.446101 -0.564438 0.395981
1542 0.270519 -0.325925 -0.139420 -0.096223 -0.189001 -0.062839 -0.296019 -0.517540 -0.267237 0.243189 -0.096453 0.849715 -0.641644 -0.242361 -0.191591 0.293575 0.619758 0.364301 0.483700 -0.151009 0.698835 0.174560 0.225384 0.111600 -0.471325 0.449821 -0.027155 -1.053589 0.715403 -0.742077 0.147585 -0.049219 -0.241673 -0.538529 0.579692 -0.683908 0.234310 0.262388 0.476783 0.520281 0.063422 0.194681 0.475287 0.309383 -0.681304 -0.252219 -0.348974 0.194428 0.036387 0.423406 0.755428 1.456025 0.267184 0.375242 -0.397781 0.064232 0.790647 -1.388645 0.457920 -0.134054 -0.298270 -0.448705 0.119212 0.673552
2034 0.436415 -0.828181 0.561754 -0.819547 0.977589 0.021333 -0.244345 -0.447516 0.363911 -0.309397 0.497710 -0.905653 -0.649680 -0.076289 -0.381052 0.588226 -0.276365 0.406927 -0.239227 0.601306 -0.100155 -0.345083 -0.521979 -0.616889 -0.480990 0.729192 -0.254966 0.095353 0.141070 0.954125 0.051698 -0.270641 -0.136785 0.607184 -0.414475 0.035924 0.462514 -0.236589 -0.704630 0.005324 0.274809 0.387009 0.521134 0.866929 -0.097402 -0.629384 0.240752 -0.701506 1.160900 0.458320 -0.211119 0.496266 0.525249 0.087905 0.187156 0.289249 0.754699 -0.277714 -0.426791 -0.283116 -0.127698 0.123088 0.746392 0.068903
1810 -0.274551 -0.283768 0.574670 0.371917 -0.186198 -0.681473 -0.244819 -0.266806 -0.498658 0.115195 -0.053599 0.091622 -0.423346 -0.165861 -0.248818 0.114141 0.153029 -0.204555 -0.289748 -0.440856 -0.387685 0.588013 0.193084 -0.317121 -0.353493 0.460793 -0.568051 -0.235952 -0.240164 0.013037 -0.720828 0.679705 0.463964 -0.792551 1.163337 -0.713384 0.962116 0.454343 0.062516 0.201759 0.060406 0.820023 0.680519 0.323220 0.268015 -0.022820 0.257292 0.025425 -0.474723 1.097755 -0.664196 0.306073 0.902309 -0.598994 -0.066878 0.055334 -0.104416 -0.943976 -0.633378 0.705995 0.312644 0.032890 0.886293 -0.821854
2130 -0.235944 -1.195265 0.694405 -0.047303 -1.478562 0.193612 0.620372 0.600191 -0.528489 -0.340202 -0.503186 0.502352 0.323183 -0.699975 -0.167176 0.186335 -0.093456 0.578166 0.282305 0.434352 0.285858 0.760942 0.586820 -0.172610 -0.762843 0.441991 -0.596114 -0.316682 0.047065 0.129185 -0.076871 0.901996 -0.046274 0.439631 -0.879505 0.365299 0.227807 0.110918 -0.079300 -0.267365 -1.199688 0.189338 0.605860 -0.179893 -0.332624 -0.476587 -0.025656 0.394401 0.444328 -0.072990 -0.903422 1.025191 -0.353589 -0.468861 -0.456673 -0.075956 0.329239 -0.425496 -0.279891 0.194627 -0.451992 -0.098988 0.266690 -0.254317
2367 -0.090653 -0.486694 0.366218 0.014526 -0.534564 -0.080740 -0.635654 0.288136 -0.069487 -0.581968 -0.212627 0.034096 -0.259894 -0.291801 0.373630 -0.702672 -0.324005 -0.107906 0.314070 -0.259010 -0.322826 0.361904 1.106835 0.342922 -0.304988 -0.006369 -0.800735 0.147332 -0.371235 0.105754 -0.102153 0.465421 0.297744 0.432731 0.164385 -0.860757 0.156736 0.335397 -0.161489 -0.752958 -0.349191 -0.195273 -0.192606 1.060874 -0.049154 -0.767834 0.298524 -0.425928 0.052332 -0.075239 0.892516 -0.420186 0.580377 -0.500028 -0.628880 0.407544 1.421467 -0.636740 0.162259 0.143607 0.515395 -0.514776 0.141914 -1.863728
2182 0.588416 0.068837 0.343829 -0.301761 0.168735 -0.276945 -0.344302 0.048129 -0.215394 -0.315181 0.360788 0.403817 0.550168 -0.015217 0.338464 0.103192 0.409929 0.099365 -0.396239 0.196601 -0.266431 -0.224303 -0.076211 -1.110496 -0.380194 -0.177222 0.297760 -1.265627 -0.564180 -0.368974 -0.656677 0.419193 -0.036082 0.170207 -0.600584 -0.354339 -0.215642 0.415354 -0.966402 -0.605275 -0.334973 -0.693697 0.516832 0.086564 0.365151 -0.882760 0.103845 -0.696432 -0.224518 0.830605 -0.114385 0.848321 0.387023 -0.232544 0.836472 -0.116644 -0.195656 -0.760304 0.695624 0.042575 0.392244 -0.182592 0.216870 -0.436437
1927 0.671948 -1.458930 0.628937 -1.324155 0.202264 -0.208499 -0.046066 0.497444 -0.536129 -0.032118 0.298297 0.053774 -0.261995 -0.466143 -0.172326 0.140146 0.238944 0.895310 -0.055692 0.044902 -0.671752 0.404157 -0.572493 0.185949 -0.215772 -0.435248 0.325747 -0.007745 0.018349 0.552020 0.295183 1.160102 -0.297484 0.268950 -0.606669 -0.805232 -0.029380 0.187764 -0.826734 -0.222618 -0.420958 -0.463097 -0.843897 0.351266 -0.049895 0.035340 -0.890321 -0.250377 -0.895601 -0.845891 -0.260411 1.433237 0.830941 0.265725 -0.110834 0.782560 -0.084491 -0.705858 0.779357 -0.115782 -0.383090 -0.195362 -0.027750 -0.219926
1950 -0.429043 -0.734972 0.001180 -0.728748 0.247665 -0.278690 -0.998829 -0.290554 0.379892 0.205749 -0.803312 0.585309 0.578696 -0.010846 0.450404 -0.641344 -0.187469 -0.425921 0.603253 -0.025540 0.071357 0.000170 0.501192 -0.560681 -1.539680 -0.848589 -0.185914 0.430005 -0.566059 0.215302 0.091801 0.889153 0.434280 0.586220 0.245021 -0.290454 -0.469791 -0.760706 -0.027691 -0.046369 0.555078 -0.276078 -0.342547 0.100842 -0.171063 0.417381 -0.081585 0.351807 -0.530089 -0.757911 -0.670936 0.264799 -0.331835 0.182584 -0.413814 0.943339 0.018162 -0.344265 0.279040 -0.258149 0.742761 0.646212 1.427352 -0.455368
1765 -0.201945 0.778088 -0.065872 0.527015 0.695145 -0.614049 -0.028375 0.604554 -0.224086 0.099975 -0.201032 -0.171627 0.150200 1.050293 -0.035209 -0.133070 -0.684873 -0.250741 -0.480236 -0.262077 0.037129 0.244835 -0.890246 0.284688 -0.812075 0.202105 -0.512664 -0.640243 -0.277586 -0.165821 0.236736 -0.712164 -0.031829 -0.072615 -0.642152 0.735627 -0.864850 -0.222831 -0.169406 0.923793 0.606237 0.226412 0.315778 -1.674200 -0.315482 0.163199 0.122823 -0.541404 -0.245936 0.304962 -1.068396 0.570908 0.242330 -0.310657 -0.079058 -0.026919 0.271055 0.037165 -0.940932 -0.312373 0.413161 0.061315 0.774858 -0.875890
1986 -0.431568 -0.118233 -0.362336 0.195790 -0.806156 0.373547 0.115166 0.635791 -0.718719 0.120942 0.194379 0.722055 -0.057854 -0.019727 0.087985 -0.924995 -0.071434 -0.345601 -0.783680 -1.389806 -0.711162 0.049909 0.422897 -0.092066 -0.176197 -0.205150 -0.699828 -0.195858 0.011689 -0.102497 -0.237697 -0.195704 0.501866 -0.555223 -0.897867 0.307883 -0.672123 0.458317 -0.773402 -0.466686 -0.091745 -0.262613 -0.518500 -0.487607 0.399972 0.101595 -0.263147 0.829967 -0.024132 -0.905366 -0.013502 0.881444 -0.423599 -0.678703 -0.417227 -0.655763 -0.552866 -0.042549 -0.016390 -0.271217 -0.593775 -0.382269 -1.443012 0.914162
1441 0.022313 0.052632 1.456260 -0.061821 -0.407584 0.001274 -0.484777 -0.657772 0.078210 0.317888 1.271287 -0.541718 -0.703453 0.461919 0.729377 0.158847 0.752295 0.693065 -0.803489 0.031653 0.025097 0.474765 -0.844339 -0.149941 0.887721 0.880033 0.276552 -0.423379 0.304982 0.194699 -0.616162 -0.300968 -0.721171 -0.595702 0.899463 -0.277910 -0.160088 0.598794 -0.305702 -0.080268 0.234819 0.487153 -0.079047 -0.637937 -0.309159 -0.137791 -0.656304 -0.861915 -0.106738 0.269471 -0.073106 -0.130486 -0.171486 0.064387 -0.569475 0.338118 0.028939 -0.717929 0.377931 -0.458743 -0.665505 -0.254121 -0.866330 0.520931
1973 -0.971469 -0.280669 0.160978 0.621415 -0.402613 -0.046474 -0.009401 -0.307002 0.317994 1.050236 0.695611 -1.068929 -0.269783 1.034047 0.369278 0.039940 -0.054659 0.242614 -0.349525 -0.513677 0.381748 0.030223 -0.169949 0.584881 -0.031496 0.834388 -0.079969 -0.823997 1.263788 0.514889 -0.306857 0.201731 -0.712266 -0.650240 -0.484679 -0.247100 0.326699 -0.031722 0.219799 -0.843014 0.175623 0.412930 -0.419039 0.394296 0.152041 -0.497744 1.017329 0.325028 0.237708 -0.873468 -0.032982 0.720108 -0.478445 -0.446538 0.107944 -0.361831 -0.452977 -0.369219 0.067006 -0.208802 0.143055 -0.214954 -0.210910 -1.027513
1914 -1.017577 -0.290059 -0.147206 0.201592 -0.013936 -0.283792 -0.486516 -0.174793 0.097380 -0.795321 -0.646249 0.238013 -1.746951 0.641926 -0.251601 0.212658 0.134090 -0.591990 -0.250154 0.186622 -0.472462 0.787573 -0.264150 -0.555201 0.559936 0.348091 0.574394 0.075639 0.160028 0.537269 -0.149227 0.475241 0.141813 -0.924250 0.848807 -0.451587 0.161957 0.445267 -0.077551 0.590935 0.563052 -0.419028 -0.958335 0.454509 0.420212 0.016307 0.326155 -0.360174 0.091724 0.349663 0.091222 1.069114 -0.138871 -1.019903 0.231938 -0.827656 -0.327242 -0.564291 -0.314208 -0.091459 -0.161439 -0.130563 0.590043 -0.902299
2671 -0.289408 -0.004130 -0.015492 -0.292674 -0.301198 0.901834 -0.350632 0.167780 -0.294046 -0.801175 -0.438872 0.667641 -0.033772 0.696859 -0.564566 -0.130888 -0.417131 0.315029 -0.173557 0.078122 -0.126001 0.543684 0.578627 -0.564042 0.258629 -0.443852 -0.623070 0.244331 0.501401 0.759186 -0.853507 0.758743 -0.349904 0.512499 0.390377 -0.356554 -1.253305 0.032975 -0.444720 0.242382 0.829505 0.827232 -0.740624 -0.185394 -0.449424 -0.213149 0.002536 0.144499 -0.391439 0.131325 0.330771 0.703907 1.026802 1.116113 0.140880 -0.146315 0.878115 0.423982 0.132526 0.543258 -0.848567 -0.437854 0.165556 -0.268930
2335 -0.303599 -0.245264 -0.311766 -0.379690 0.063624 -0.764964 -0.781406 0.555749 -0.394700 0.503408 -0.135074 1.257747 -0.446825 0.049576 -0.985181 0.049247 -0.248456 -0.268299 -0.133369 0.000874 1.253414 0.831599 0.031463 -1.268168 0.286057 -0.509953 0.546845 -0.157360 -0.066875 0.026511 -0.080850 0.046940 -0.601893 -0.295078 -0.169452 0.725482 0.052086 -0.263494 -0.007649 0.948236 0.032265 -0.150048 0.425861 -0.116145 -1.297975 -0.306542 -0.076870 -0.127181 -0.150944 0.180236 0.523652 0.604038 0.684809 0.183241 -0.487203 0.676690 -0.043439 0.666664 -0.480781 -0.784627 0.759492 0.703360 -1.135344 0.281784
2451 -0.212854 -1.058610 0.049975 0.313079 -0.085791 0.442660 0.044566 0.382923 -0.672364 -0.356592 -0.205864 -0.488377 -0.532273 0.416319 -0.720358 -0.093585 -0.539528 0.473444 -0.559701 -0.716516 -0.109942 0.110753 0.382936 0.100145 -0.175121 0.652666 -0.762076 0.117634 -0.107989 0.141700 -0.497305 0.391629 -0.499368 -0.012426 -0.751635 -0.253122 0.203970 1.036019 -1.089985 -0.547586 -0.283269 -1.053706 -1.061294 0.186536 0.034139 0.165166 0.354677 -0.161579 0.082169 0.654682 0.516060 0.339346 0.592761 -0.208501 0.054385 -0.542231 -0.046118 -0.907216 -0.519308 -0.026385 -0.054923 0.336226 -0.922754 -1.385806
2383 0.308294 -0.237146 0.193632 -0.558596 0.251441 -0.502269 0.426404 1.294436 0.670845 -0.075403 0.404461 -0.236845 -0.011951 -0.239212 -0.203893 0.013016 -0.113727 -0.063391 -0.262005 -0.477609 0.159994 -0.734344 -0.275318 0.317961 0.561569 -0.052220 0.096190 -0.108863 -0.059732 -0.191520 -0.428657 0.500228 -0.481438 -0.661411 -0.356488 0.055232 -0.847747 0.434536 -0.041940 1.255972 0.333208 -1.554166 -0.082007 -0.320132 -0.508670 -0.133040 -0.091643 -0.408235 0.455778 -0.853762 0.924564 1.151659 -0.295195 -0.294330 -1.173511 -0.234061 0.897755 -0.119486 -0.622233 -0.085594 1.121210 0.115947 0.123356 -0.017170
1703 -0.205476 0.651529 0.531509 0.230321 -0.666642 -0.223477 -0.736015 -0.016104 0.629610 -0.759961 -0.614505 -0.390453 -0.733641 0.229392 -0.063920 0.136263 0.070031 -1.020880 -0.150839 -0.247884 -0.502786 0.420508 0.837350 -1.288443 -0.256623 -0.759718 -0.522582 -0.576381 0.069785 0.279789 0.009733 0.468815 0.785489 0.045786 -0.062987 0.657765 -0.309766 -0.311496 -0.743538 -0.834309 -0.491666 0.103743 0.357252 -0.382105 -0.338858 -0.503641 0.126333 0.418775 0.184601 0.775743 -0.436722 1.547259 0.651820 -0.570910 0.331073 0.470644 -0.738774 -0.550523 -0.373735 0.564446 -0.132197 -0.536495 -0.283164 0.484472
973 -0.689702 -0.296831 0.204063 0.066661 0.590592 -0.497734 -0.331027 0.618824 -0.989812 -0.195312 -1.118625 0.294903 0.495473 0.140874 -0.497520 0.008467 -0.214179 -0.587669 0.226478 0.383778 0.712972 -0.434512 -0.267002 0.221951 -0.780029 0.961185 -0.037449 0.487511 -0.445778 -0.234374 -0.507740 0.262917 -0.085830 0.088169 -0.447180 -0.513863 0.433888 0.181542 -0.806782 0.719057 0.418529 -0.603607 0.864310 0.195051 0.056542 0.287101 -0.364119 -0.227407 1.195412 0.524077 -0.196811 0.750767 0.864242 -0.063188 0.115353 -0.347859 0.362954 0.377843 -1.133055 -0.581908 -0.515470 1.153587 1.126837 -0.534840
1869 -0.534903 0.280803 0.027881 -0.202539 0.494658 0.396692 -0.068536 0.074621 -0.940616 0.259864 -0.796757 0.979382 -0.110984 0.865476 0.140601 -0.213764 0.651242 -0.056494 -0.075709 1.614605 0.206084 -0.816524 0.255930 -0.450867 0.173075 0.146257 0.413235 -0.641404 -0.162601 -0.125379 0.362103 -0.451774 -0.410450 0.334281 -0.920710 0.332187 -0.036283 -0.075128 0.681703 -0.250621 0.509782 -0.331168 -0.736506 0.070737 -0.545730 0.683033 0.630711 0.593607 0.514464 -0.503490 -0.771284 1.318001 0.430536 -0.638531 -0.230731 0.650901 0.617554 -0.130057 0.466154 -0.683102 0.047284 0.528693 0.506001 -0.838834
2359 -0.476540 -0.037776 0.019524 -0.172808 1.081522 0.285791 0.055217 -0.161831 -0.448623 -0.030619 -0.384587 -0.203401 -0.545821 0.432986 -0.310812 -0.375954 0.296287 0.199467 0.012468 0.873329 0.232907 0.375192 -0.375921 0.036892 0.540555 0.690697 0.875775 0.416503 0.125474 0.154564 0.303509 0.639321 -0.194204 -0.221890 0.823044 -0.365417 0.137644 0.748306 -0.352192 -0.104253 -0.887896 -0.535497 -0.719231 0.186250 -0.201726 0.115190 -0.062920 -1.068352 0.114224 -0.692778 0.401820 0.510015 0.113354 -0.131835 0.508629 -0.281565 -0.273938 1.440709 -0.028571 -1.576120 0.120278 0.792229 -0.587022 -1.449067
1725 0.254963 0.115019 -0.416620 0.166783 -0.074621 -0.763086 0.492125 0.905911 0.268037 -0.942416 -0.605151 0.125830 -0.081158 0.576264 0.391810 0.510046 0.000244 -0.721951 -0.194550 0.080138 0.503561 -0.193704 1.135978 -0.256364 0.354842 -0.357743 0.032521 0.686759 0.815506 -0.354660 -0.303780 0.807039 0.116815 -0.297884 -0.157739 -0.623655 -0.037595 0.033687 0.093269 0.250943 -0.061008 -1.113834 0.949943 -0.552908 -0.206759 -0.690245 -0.061828 -0.607032 0.531876 0.114593 1.365396 0.724662 0.459636 0.957769 0.337989 0.440178 0.213227 0.366704 -1.115836 -0.389876 0.716757 -0.501618 -0.992537 -0.012320
1902 -0.427718 0.235935 0.550947 -0.589448 0.272368 -0.764336 -0.584127 0.314622 -0.410361 0.549195 0.785137 0.110383 -0.483538 -0.276362 -0.004901 0.018654 0.881443 -0.343942 0.410016 0.325493 0.284622 -0.275681 0.879524 -0.907032 -0.065169 -0.153493 0.489984 -1.007396 -0.008376 -0.538330 -0.084973 1.171447 -0.584154 -0.069147 -0.448384 -0.669403 0.709408 0.678191 0.371704 -0.503175 -0.161160 -0.595080 0.109091 0.736436 -0.688373 -0.170028 1.021323 0.461010 0.460346 0.116590 -0.101884 0.260371 0.956953 0.120961 0.306383 0.648913 -0.106251 0.073636 -0.109891 -0.184709 -0.320031 0.846718 -1.078546 0.405227
1692 -0.144141 0.185244 0.210782 -0.494288 -0.989297 -1.059777 -0.674246 0.566750 0.725962 0.522519 0.482342 -0.309841 -0.123442 -0.620958 -1.092924 0.653297 0.044751 0.172753 -0.483356 -1.007665 0.148444 0.340529 -0.294004 -1.035957 -0.967587 0.207280 -0.017143 -0.720209 0.915491 0.451106 0.091305 -0.746150 -0.802517 0.001507 0.824269 0.247882 -0.047270 -0.792158 0.534468 0.301089 -0.377697 1.488206 0.832507 0.474138 -0.871570 0.243772 -0.168696 -0.256071 -0.096229 0.109505 -0.172116 0.357873 0.626599 -0.526568 -0.292384 0.807043 -0.213143 -0.346000 0.362151 0.177001 0.538207 0.078006 0.252758 -0.202271
733 -1.035928 -0.312826 0.358731 -0.977787 -0.771042 -0.233699 0.117920 -0.400449 0.365492 0.268500 0.460184 -0.034943 0.696216 -0.060997 -1.091360 0.002030 -0.508040 -0.197087 0.431933 -0.020320 0.170443 0.530607 0.128471 -0.777066 -0.102848 0.191627 -0.172220 -0.029076 -0.743464 -0.317794 -0.681058 0.087450 0.212714 0.584901 0.753614 0.095663 0.346951 0.417706 -0.871581 0.023168 0.020063 0.791587 1.462338 1.139036 -0.555651 0.002964 -0.374942 -0.278690 0.523724 -0.186474 -0.404086 -0.792126 -0.505582 0.644576 0.354279 0.038324 -0.145744 -0.433377 -0.039635 0.267710 0.085632 -0.190824 0.627109 0.961582
2117 -0.853480 -0.555701 -0.368074 0.020666 0.685712 0.171849 0.981173 -0.505893 0.541755 -0.168845 -0.194530 -0.744172 -0.737645 -0.027665 -0.796420 -0.024721 0.044593 1.320732 -0.734945 0.014965 0.713684 0.443047 0.330572 -0.444617 0.560704 1.032039 -0.209509 -0.140614 0.475861 0.194844 -0.120214 -0.052464 0.685642 -0.348653 1.167717 -0.260492 -0.191665 -0.135834 0.067376 1.673071 0.472021 0.334300 0.208273 -0.236568 -0.758545 -0.098016 1.055965 -1.050943 0.320005 -0.245420 0.048521 0.579693 -0.527074 -0.234523 0.445482 -0.485843 -0.213270 0.317505 -0.231928 -0.800334 1.137232 0.143308 -0.248797 0.139087
1966 0.440112 -0.415555 0.391282 -0.352968 -0.329139 -0.149753 0.286748 1.122756 0.013367 -0.151091 -0.270925 -0.101020 0.672662 -0.087313 -0.211973 0.453548 -0.324336 0.069035 0.262492 0.304552 0.062396 -0.492643 -0.014579 -0.030924 -1.494577 1.112839 0.314908 -0.445506 1.188596 -0.481275 -0.648749 1.019225 -0.062755 -0.311932 1.377345 -0.590610 0.057869 0.479715 -0.716820 0.067557 -0.693760 0.412987 0.871188 0.608608 0.115961 -0.330484 -0.714934 -0.631742 -0.275148 0.159105 -0.034817 0.490599 0.885767 -0.060717 -0.223931 -1.341915 0.037724 0.264398 -0.294534 0.147815 0.494956 0.822481 0.741899 -0.658023
1919 -0.926276 -0.327850 0.445085 0.857837 0.066162 -0.374360 -0.025486 -0.123455 0.135488 -0.835990 -0.313377 0.290374 -1.693905 1.059454 0.038455 0.171480 0.065132 -0.464841 -0.101360 0.646541 0.066131 0.488511 0.004250 -0.136067 0.152877 0.200963 -0.137147 -0.162745 0.721695 0.369465 -0.115837 0.712518 0.551463 -0.437880 1.031584 -0.438263 0.173632 0.122846 -0.404476 0.380726 0.212758 -0.287871 -0.514185 0.264271 0.066551 0.159886 0.282333 -0.815991 -0.565766 0.254308 -0.220622 1.173009 -0.218808 -0.752896 0.488008 -0.419675 -0.180659 -0.828647 -0.485797 0.189244 -0.127052 -0.286538 0.750611 -0.946245
2291 0.226670 0.112683 0.919499 -0.456331 -0.229570 0.263948 0.003885 0.214208 -0.542510 -0.422224 0.102031 0.414160 -0.010090 0.764004 0.401029 -0.570425 -0.324766 0.404570 -0.352974 -0.139653 0.248191 -0.240028 0.152315 -0.404349 -0.967740 0.330109 0.655166 -1.485878 -0.011588 0.190808 -0.655905 0.847601 0.227824 0.664232 -0.282736 -0.451238 -0.333437 0.811253 -1.493917 -0.302028 -0.347671 -0.147673 -0.287017 0.227262 0.075968 -0.165022 -0.262220 -0.398596 0.014248 0.757835 -0.334491 0.575865 1.016853 -0.413204 0.872548 -0.671071 0.307245 -1.097222 0.958872 0.529593 -0.875067 0.994139 0.001977 -0.307235
711 -0.807578 0.440722 -0.621069 -0.534943 -0.555811 0.373500 0.292942 -0.000518 0.296950 -0.444698 -0.038924 -0.804872 -0.021895 0.544274 1.039946 -0.087275 -0.816786 0.168327 0.454069 -0.252395 -0.122349 -0.355726 -0.504948 1.075037 0.622185 0.744425 -0.573406 0.116005 0.564032 0.277290 -0.729093 -0.389762 0.602705 -0.544836 0.418470 -0.974445 0.714635 -0.853252 -0.046073 0.350696 0.734016 0.454652 0.365264 0.110890 1.385387 -0.300055 0.326475 0.029910 0.419960 -0.672065 0.667148 -1.180581 -0.220130 0.790020 0.516382 -0.454166 -0.124228 0.457587 0.177597 0.138681 0.486983 -1.100379 0.180146 -0.239664
598 0.350196 -0.145369 0.251361 0.850195 -0.454945 0.148238 -0.000797 -0.478320 -0.127876 0.311141 -0.804315 -0.454589 -0.182294 0.837129 -0.076294 -0.502319 0.208294 0.178575 0.380032 0.235603 0.986456 -0.083599 0.740501 -0.105333 -0.389630 0.055941 -0.537631 -1.423831 0.119302 0.658467 -0.138652 0.656853 0.333814 -0.133323 -0.073159 0.803124 0.512444 0.363783 -0.718754 -0.392548 -0.001254 -0.483400 1.018273 -0.801960 0.232840 0.414448 0.157159 -0.379902 0.913733 0.728380 -0.404028 0.113033 0.096236 -0.167688 1.183883 0.550840 0.084399 -0.861737 0.758982 0.819825 -1.078017 0.078760 -1.065737 1.096829
2238 -0.497273 0.200459 0.908570 0.389955 -0.531763 -0.762014 -0.529589 0.054542 0.399882 -0.835125 -0.407201 -0.277261 -0.714257 0.290581 -0.021187 -0.092248 -0.173105 -0.940077 0.119261 -0.060248 -0.215217 0.604964 0.306997 -1.079388 -0.489055 -0.900569 0.192311 -0.707704 0.347200 0.341905 -0.021667 0.212929 0.413662 -0.030158 0.313651 0.935621 0.211504 -0.601502 -1.245220 -1.109744 0.043161 -0.536278 0.533469 -0.528924 -0.499847 -0.137576 -0.208856 0.028587 0.067714 0.621801 -0.252647 1.186874 0.602293 -0.611044 0.373039 0.290009 -0.978943 -0.271682 -0.039250 0.424448 0.035668 -0.688284 -0.344833 0.538366
2168 -0.723500 -0.114692 0.286824 0.211897 0.539845 -1.117802 -0.689317 0.561195 0.114558 0.313456 -0.168172 0.099159 0.547972 -0.442451 -0.325038 -0.678582 -0.730665 0.175768 0.373519 0.508701 0.980958 -0.139589 -0.217105 -0.064695 -0.954900 0.844999 0.604435 0.060297 -0.150741 0.144371 0.535536 0.014952 0.424694 -0.429581 0.183555 0.340549 0.347501 -0.175245 -0.579427 -0.304402 -0.218941 -1.268418 1.082343 0.591541 -1.445261 -0.386209 -0.403694 -0.480849 0.227060 -0.408806 0.231585 -0.151291 0.400783 -0.468888 -0.136103 -0.090165 -0.212306 0.189547 0.269274 -0.946687 -0.312445 0.566507 0.502540 -0.370061
2681 -0.785045 -0.141777 0.291444 -0.209385 0.293813 -0.496354 -0.723503 0.105438 0.564431 0.109131 0.153229 -0.656161 0.849540 -0.698457 -0.638472 -0.265276 0.176237 -0.559360 0.185406 0.794748 -0.287159 0.517292 0.062453 -0.409439 -0.038550 0.276545 -0.538268 0.831866 -1.229815 -0.072451 0.075987 0.286954 0.551831 -0.050677 1.156235 -0.117538 -0.455030 0.566705 0.291091 -1.042165 -0.977665 0.100246 0.841083 1.412228 0.174644 -0.082103 -0.075798 -0.292390 -0.176183 -0.116088 -0.077948 -1.275032 -0.130911 -0.635599 -0.127148 0.401974 -0.462092 0.614891 -0.531334 0.196627 0.324441 0.165192 0.943463 -1.362547
1903 -0.285940 0.273129 0.766536 -0.198461 -0.058089 -0.754663 -0.198237 0.495417 -0.488705 0.420738 0.803708 -0.464345 -0.268181 -0.053022 0.140843 0.375183 0.790451 -0.017858 0.093321 0.357381 0.191730 -0.205878 1.329893 -1.043392 0.160356 -0.280063 0.247152 -0.827976 -0.247226 -0.754034 0.029123 0.507537 -0.357953 0.067705 -0.479326 -0.321642 0.310271 0.674587 0.040815 -0.702178 -0.237361 -0.491110 0.735112 0.944679 -0.520207 -0.304046 0.935623 0.158135 1.007942 0.441933 0.308013 -0.059925 0.651246 0.041518 0.338878 0.692037 -0.244484 -0.184067 0.000306 -0.026041 0.386359 0.039353 -0.736354 0.365357
2385 -0.510738 0.609862 0.532526 -0.919058 -0.329968 0.187338 -1.032075 0.321131 -0.299872 0.271167 -0.002796 0.141272 0.584559 0.131720 0.301737 0.223007 -0.080341 -0.107588 -0.030756 0.459045 0.001588 0.150405 0.973877 -0.920375 -0.539042 -0.658871 -0.874364 -0.249634 -0.367538 0.128744 0.460126 0.578440 0.291497 -0.023757 -0.251559 -0.397750 -0.878425 0.688022 0.491692 -1.087978 0.279113 0.198132 0.387441 0.072202 -0.119976 0.201490 0.042110 0.755878 0.920212 0.643285 0.851878 -0.530833 0.440095 0.495154 0.064410 1.077514 0.446994 -1.073295 0.037975 0.981891 0.007894 -0.987221 -0.127057 -0.522310
1309 0.514877 0.567741 0.651114 0.351923 -0.046812 -0.718765 -0.626144 0.405681 -0.554713 0.429140 0.240502 0.739870 0.988990 0.596753 0.224219 -0.827847 0.196827 -0.528135 0.017135 0.209156 0.007784 0.586337 -0.099028 -0.475969 0.506649 0.980062 -0.271145 -0.061607 -1.251373 -0.418680 -0.707485 -0.146684 -0.108694 0.155243 -0.191400 0.416410 -1.051500 1.242331 0.683017 -1.085429 -0.645917 -0.225590 0.916527 0.203473 -0.048802 -0.399767 -0.265432 -0.293408 0.015049 0.271267 -0.795623 0.074350 0.194601 -0.806784 -0.635269 1.368292 0.786231 -0.175560 0.608929 0.024323 -0.872028 0.376925 0.158713 -1.203601
2199 0.835453 -0.378605 -0.730431 -0.673396 -0.442261 -0.198338 -0.493591 0.586190 0.427586 -0.573023 0.015980 0.455050 0.658337 -0.487711 0.210458 -0.198360 0.156721 0.115460 0.278074 0.052122 -0.548143 0.309751 -0.118744 -0.338627 -0.111770 0.142395 -0.384193 -0.190982 0.519488 -0.367153 -0.777519 0.221344 0.131522 0.178667 -0.151987 -0.574570 -0.636520 0.551037 0.534978 -0.649651 -0.765536 -0.525613 0.637268 0.775808 0.539877 -0.984224 -1.099063 0.434333 -0.081980 0.781573 0.266096 -0.583434 1.347031 1.020335 -0.065529 0.777097 0.352312 -0.600772 0.629151 0.646043 -1.195620 -0.171962 -0.217619 0.040669
1103 -0.376736 0.376700 0.305781 -0.767020 0.547142 0.158466 -0.601168 0.003058 -0.714175 0.252138 -0.001039 0.628727 -0.593294 -0.506901 0.430088 -1.333484 0.027656 -0.894237 0.453942 -0.563561 0.282246 0.751515 -0.497124 0.438326 0.757598 -0.315365 -0.236845 -0.105761 -1.537059 0.814558 0.732519 0.205156 0.325653 -0.493064 -0.142220 0.151009 -0.863303 0.395869 -0.066324 0.312716 -0.314065 0.097657 -0.440505 -0.356402 -0.666968 1.216067 -0.344367 0.113201 -0.880877 -0.492938 -0.357942 0.951906 -0.389536 -0.754216 -0.522361 0.562837 0.254226 0.491413 0.992370 -0.012473 -0.202887 -0.351561 -0.159330 -0.583981
1558 -0.425403 -0.044568 -0.614323 -0.054099 -0.762286 0.458834 -0.083222 0.529325 -0.711803 0.285661 -0.069228 0.538487 0.074545 -0.057748 0.257761 -0.710665 0.007133 -0.527905 -0.878941 -1.523939 -0.439307 -0.043620 -0.205559 0.151203 -0.453537 -0.243566 -0.519810 -0.497085 0.235576 0.164939 -0.396049 -0.401234 0.449644 -0.282790 -0.555929 0.154116 -0.461053 0.533269 -0.593783 -0.534848 -0.165099 -0.314089 -0.701053 -0.345330 0.309471 0.118420 -0.354268 0.809041 -0.191508 -0.890727 -0.385744 0.881139 -0.216015 -0.568091 -0.096955 -0.767591 -0.702341 -0.567964 0.263499 -0.027777 -0.737973 -0.434990 -1.365006 0.624977
2309 -0.270101 0.374441 0.089279 -0.275734 0.419139 0.590470 -0.450933 0.166450 -0.871060 0.294039 -0.822931 0.755170 -0.294718 0.519364 0.354559 -0.072171 0.678683 0.149007 -0.222309 1.422164 0.348521 -0.831624 0.405077 -0.517238 0.186108 0.087004 -0.176366 -0.668728 -0.171943 0.019335 0.605775 -0.226958 -0.292076 0.403669 -0.916209 0.288480 -0.594391 -0.233329 1.101521 -0.084618 0.319156 0.085146 -0.730419 -0.201333 -0.546384 0.248377 0.642484 0.974644 0.391641 -0.573299 -0.765797 1.417138 0.367512 -0.732434 -0.371719 1.126669 0.825499 -0.261004 0.443985 -0.516853 -0.037692 0.398238 0.397154 -1.042374
2425 -0.341696 0.077544 0.332942 -1.583038 -0.250427 0.059613 -0.268789 -0.231875 0.603182 -0.461991 0.689945 -0.474207 -0.462765 0.115858 0.317391 -0.140851 0.110859 0.274537 1.213206 0.756813 -0.360341 0.539651 0.169540 -0.296335 -0.866829 -0.409676 0.101969 -0.454954 0.059068 0.372892 0.543605 0.489652 -0.657071 0.350686 0.039265 0.047291 -0.770488 -1.452752 -0.081548 -0.389806 0.199682 0.552377 -0.060167 0.547986 0.250953 -0.142933 0.570671 0.631252 -0.260828 -0.964458 -0.195842 1.436765 0.100470 0.346679 0.258011 0.539652 0.484885 0.217744 0.674698 0.246014 0.453656 -0.753428 1.345447 -0.728196
1583 0.041221 -0.741661 0.202708 -0.082111 0.519687 -0.537629 -0.542831 -0.355164 0.029914 0.624014 0.262808 0.330395 -0.687671 -0.002261 0.600948 -0.223774 -0.001391 -0.103424 0.147231 0.170880 -0.273362 0.929880 0.197826 -0.814628 -0.815065 -1.022283 -0.404026 0.698698 -0.241830 0.013624 -0.019784 0.350236 0.524695 -0.384881 0.405369 0.693273 0.321164 0.032954 -0.434230 -0.679813 -0.771058 -0.252631 0.946115 1.219275 0.088290 -0.116097 0.184281 -1.010538 -0.554759 -0.303235 0.456578 0.240727 -0.738656 0.783046 -0.101788 0.519424 -0.383452 1.047260 0.245915 -1.311148 1.020184 -0.736473 -0.083062 -1.246473
2077 -0.517133 -0.183056 0.646298 -0.607287 0.145877 -0.261698 -0.277869 -0.034661 -0.339856 0.217203 -0.265324 1.660228 -0.230068 0.672979 0.328432 -0.206154 -0.042346 -0.297103 0.330283 0.675350 -0.004889 0.812103 0.450884 -0.547302 0.252438 -1.368562 -0.209264 -0.095024 -0.767805 0.022617 0.325619 -0.475472 0.756052 1.012998 0.105005 0.358563 -0.190050 -0.236810 -0.338298 -0.444988 0.986132 -0.659891 -0.034473 0.460187 -0.967455 0.619824 0.179526 0.394465 -0.539817 -0.489320 -0.905029 0.208683 0.481722 0.373829 -0.300346 1.488115 0.274259 -0.053335 0.548980 -0.310420 -0.807041 -0.326470 0.582422 0.420041
2450 -1.251175 0.380171 0.688014 0.012932 -0.075610 0.283368 0.344838 -0.150843 -0.887723 0.666476 1.018469 1.013429 0.484337 -0.552177 0.084493 0.234026 -0.128817 0.636113 -0.431610 0.240123 0.939114 -0.166015 -0.184060 -0.663973 -0.990298 0.324772 0.006270 -0.422274 -0.047303 -0.723711 0.322262 -0.034420 -0.273277 0.897535 -0.425260 0.091213 0.320651 0.527286 -0.398226 -0.155890 0.267400 -1.063976 -0.067989 0.438710 -1.138425 0.442728 1.026724 -0.402123 -0.292754 -0.158972 -0.845012 0.073957 0.020255 0.368988 0.239726 0.434239 0.224699 -1.093541 -0.594989 -0.416222 -0.354471 0.885576 -0.928041 0.241705
2399 -0.006483 0.706651 0.662033 0.430916 0.534096 0.074826 1.072818 -0.165426 -0.686070 -0.219192 0.184469 -0.392361 -0.691526 0.247587 1.432385 -0.285187 0.233275 0.851514 -1.671718 -0.563492 -0.358420 -0.388473 -0.498257 0.209438 0.517373 0.468682 0.015098 -0.262457 -0.278123 0.578306 0.099786 -0.059950 -0.016718 -0.417184 -0.370913 -0.077287 -0.042906 -0.549293 0.154307 1.386199 0.668286 0.773814 -0.412198 -1.298541 0.149494 -0.007174 0.447728 -0.566562 0.099473 -0.224779 -0.509937 0.079592 -0.001081 -0.400466 0.967686 -0.103117 -0.337143 -0.101966 -0.024540 0.389059 0.074555 -0.820855 -0.255856 -0.591140
1789 -1.272394 0.457192 0.357072 -0.823384 0.770734 0.421904 0.002561 -0.112018 -0.623566 0.476216 0.304995 -0.307717 -1.208899 -1.423841 -0.188653 0.112547 -0.401563 0.075050 -1.050174 0.338402 -0.916184 -0.182386 0.573406 -0.635735 0.062766 -0.462107 0.353339 -0.487314 0.029266 -0.059675 0.571228 0.041987 -0.381725 -0.186976 1.389902 0.078046 0.055283 -0.530182 0.205916 0.292191 0.606530 0.431492 0.178654 -0.334971 -0.934817 0.021198 0.401583 -0.390994 -0.075582 -0.692414 0.058732 -0.551393 0.217084 -0.191061 0.175204 -0.511977 -0.793670 0.747789 -0.076193 -0.460263 1.389149 0.295954 -0.636687 -0.181690
2122 -0.736230 0.855634 0.500587 -0.401648 0.647383 0.137105 -0.493101 0.338770 -0.486481 0.996171 -0.125106 -0.531416 0.283409 -0.445586 -0.053223 0.538472 -0.093205 -0.118057 0.353252 1.221742 -0.429374 -0.348161 -0.178140 0.086212 0.144143 -0.218590 -0.264576 -0.187331 -0.024334 -0.969175 0.444674 0.065755 0.022189 -0.450984 0.889341 0.365073 -1.308802 -0.352881 0.472995 0.982685 0.451149 -0.117957 1.100681 -1.071223 -0.613617 -0.252142 -0.497196 0.822739 0.270548 -0.979595 0.148756 -0.175876 -0.871934 0.463861 -0.790560 0.055180 -0.023882 0.126447 -0.249526 -0.395893 0.521777 0.180698 1.169935 0.977858
1894 -0.797340 -0.115158 -0.267385 0.189367 0.680816 0.014926 0.738866 -0.631778 -0.017907 0.054337 -0.044599 -0.940035 -0.512781 -0.180695 -0.539585 0.086242 0.091574 1.226666 -0.935285 -0.114650 0.835040 0.383435 0.171580 -0.273770 0.439600 1.066365 -0.066165 -0.019230 0.583624 0.176983 0.248165 -0.071403 0.556114 -0.566269 0.589794 -0.401607 -0.068422 0.017255 0.244330 1.096712 0.049851 0.365729 0.158922 -0.471273 -0.738728 -0.173728 1.166989 -0.861460 0.368136 0.262154 0.217914 0.473729 -0.618983 -0.183167 0.517688 -0.366299 -0.342504 0.445773 -0.385537 -1.044417 1.238801 0.126107 -0.816238 -0.061656
2071 0.801310 0.441876 0.330464 0.859432 -0.004793 -0.767518 -0.369815 0.652250 -0.862060 0.852549 0.237976 0.585294 0.410679 1.344147 0.076265 -0.124458 0.375406 -0.776913 -0.150758 0.160811 0.124482 0.103430 -0.499390 -0.270984 1.152564 0.785689 0.113642 -0.607159 -0.912720 -0.463201 -0.499219 -1.115940 -0.259873 -0.006608 -0.676325 0.728930 -0.400014 1.088945 0.520021 -0.100857 -0.470375 -0.245192 0.875037 0.379316 -0.250732 -0.246120 0.137387 -0.321163 -0.337921 0.107371 -0.889330 0.315153 0.007789 -0.995457 -0.625259 0.805865 -0.042744 -0.051436 0.923350 -0.387977 -0.650294 0.389432 0.012686 -0.550346
1534 -1.102338 0.486066 0.294849 -0.183645 0.080413 0.166213 0.101941 0.547072 -0.620590 0.649873 0.786436 -1.014516 0.115293 -0.165296 0.669721 0.473963 0.545248 0.177726 -1.055587 0.688579 -0.536248 -0.817130 -0.397419 0.142625 0.374340 0.037916 -1.300323 0.284339 0.314491 0.209639 0.474077 -0.475954 0.000470 -0.754359 -0.009460 -0.103338 -1.244153 -0.348371 0.760282 0.829025 -0.424956 0.723623 0.308032 -0.410276 0.343755 0.402685 -0.131274 0.382594 0.242192 -1.428477 -0.569152 -0.257159 -0.723391 0.485848 -0.010920 0.306786 -0.835118 -0.069103 -0.384950 0.072048 0.495076 -0.850639 -0.562489 0.192474
1907 -0.790663 0.975356 0.769871 0.082051 -0.181209 0.013205 -0.093387 0.285296 -0.728977 0.142045 -0.082466 0.562467 0.508482 0.495580 0.039729 -0.452538 0.722791 -0.273523 0.928935 1.615328 -0.340770 -0.223807 -0.113514 0.582678 1.169502 -0.117781 -0.343490 0.065842 -0.202936 -0.017308 0.699667 -0.480042 0.038444 -1.205769 0.182167 -0.012648 -0.900125 0.574590 0.595095 -0.559536 -0.457804 0.271589 -0.033973 0.326755 -0.048844 0.998399 -0.357110 0.669663 0.549234 -0.819124 -0.298882 0.463246 -0.571467 -0.146771 -0.475827 0.220015 0.318957 -0.030570 0.985164 0.470327 -0.226552 -1.276127 0.400071 -0.213863
2141 0.076006 0.412065 -0.849454 -0.817555 -0.009391 0.993544 0.584781 0.359498 -0.276741 -0.380253 -0.293705 -0.456726 1.015061 0.439846 0.073155 0.381339 -0.160820 -0.211008 -0.423823 0.076987 -0.549707 -1.213376 -0.009929 0.602271 -0.537288 0.680178 -0.667543 0.468503 -0.060503 0.021911 -0.132607 -0.253717 0.382976 1.582176 -0.186771 -0.902269 -0.749429 0.568016 -0.006864 0.489037 -0.733685 -0.379412 -0.000620 0.126715 0.979222 0.777716 -0.389810 -0.140739 -0.076022 -0.268396 -0.929423 -1.214648 0.027417 0.223466 -0.060949 -0.574600 -0.175615 -0.767079 -0.118420 0.361784 -0.590063 1.243090 0.608772 0.392008
2365 0.368969 0.040140 -0.512385 -1.319876 0.163691 0.231085 -0.201303 0.701749 0.325975 -0.149766 -0.385346 0.181508 0.726630 0.133735 -0.078545 -0.446762 0.556008 -0.216846 1.206658 1.035181 -0.380160 -0.531888 0.183321 -0.133564 0.005168 0.085654 0.352005 -0.289854 0.139612 -0.092315 -0.422793 0.074081 -0.033482 0.776603 0.188173 -0.399989 -0.662012 -0.287815 0.439970 0.320851 -0.285118 -0.595140 0.968914 0.517724 0.123330 0.221367 -0.903391 1.116773 0.269530 -0.089211 -0.786686 -1.012499 0.760036 1.130028 -0.432112 0.727482 0.592785 0.321860 0.494272 0.420684 -0.741529 1.046734 0.914353 0.815852
2418 -1.393901 -0.137045 0.083155 -0.397019 -1.124746 0.741256 0.283540 0.331593 0.057997 0.174231 0.041009 -0.348023 0.026882 0.525330 -0.271288 -0.005175 0.488928 -0.507273 0.507848 0.544734 0.456533 -0.346885 0.869589 -0.004317 0.362395 -0.329556 -0.432467 0.708703 -0.181752 0.505094 -0.354839 0.364216 0.284257 0.256717 -0.039604 0.057401 0.178295 0.098290 -0.319689 -0.060668 -0.608359 -0.494071 0.360353 0.280356 0.362140 1.555854 -0.383115 0.638826 0.094160 -0.593950 -0.513444 -1.018048 0.033230 0.938171 -0.276156 0.828249 -0.940452 0.212762 -0.584021 0.343497 -0.622426 0.449025 -0.981245 0.918541
2501 -0.424333 -0.097373 -0.526055 0.574643 -0.593597 -0.623084 -0.569332 0.919220 -0.144419 0.127447 -0.068227 -0.878856 -0.151513 -0.470176 -0.230913 -0.006197 0.068714 -0.124904 -0.568451 -0.027732 -0.069976 0.328019 -0.644115 0.683468 0.894122 -0.245326 -1.108912 -0.067807 0.651117 1.024729 0.033303 -0.143714 -0.106654 -1.331376 0.897810 0.278360 -0.810192 0.029608 0.874568 -0.161237 -0.765770 0.075049 0.068096 -0.372314 0.250387 0.189660 -0.922278 0.411649 -0.474221 -0.604548 0.758038 -0.533599 0.335204 -0.123176 0.294209 0.489986 -0.831960 -0.144717 0.434739 1.036632 -1.005125 -1.121441 -1.020679 0.085636
2614 -0.147163 0.236904 -1.005270 -0.048964 0.021563 0.400985 0.224073 0.771041 0.365679 -0.484905 -0.209882 -0.527349 0.049878 -0.078898 -0.273027 -0.165515 -0.523066 -0.103347 0.252838 -0.315490 -0.304111 -0.301921 -0.365168 1.446833 -0.116653 -0.492989 -1.040143 0.458034 1.004868 0.346395 0.188956 -0.017273 0.376028 -0.245953 0.656035 -0.286782 -1.369304 0.011538 0.858027 0.136317 -0.498781 -0.448176 -0.073763 -0.598507 0.683959 0.923015 -1.360577 0.675503 -0.269964 -0.326409 0.548537 -0.958385 0.066178 0.690775 -0.304141 -0.016071 0.216411 -0.532155 -0.272647 1.023900 -1.078413 -0.230298 0.020403 0.190946
2356 -0.376511 1.220464 0.054306 -1.052800 0.715978 0.209709 0.388974 -0.194418 0.111694 0.164639 0.481160 -0.226471 -0.244105 0.459511 -0.768901 0.640525 -0.113415 -0.525840 -0.904861 0.410185 -0.725392 -0.298091 -0.019605 -0.781627 0.354893 -0.502962 -0.542181 0.155857 -0.285830 0.284038 0.230000 -0.030251 -0.527376 1.037743 0.691674 -0.062323 -0.994468 -0.273978 0.624600 1.153692 -0.031253 1.216244 0.301101 -0.124635 -0.373335 0.169077 0.643988 -0.580447 0.604213 -1.140834 -1.236324 0.116760 -0.525674 0.455794 1.122279 0.022149 0.304457 -0.165585 -0.568686 0.761442 -0.139128 -0.188520 0.482414 0.386951
2269 -0.074676 0.385433 0.483521 -0.121896 -0.583135 -0.466564 -0.105065 0.579614 -0.191453 0.619917 0.444779 -0.736109 -0.234248 0.098746 -0.176538 0.774261 0.711154 0.182323 0.177609 0.476752 -0.268104 0.032772 1.178948 -0.863939 0.083827 0.178803 0.184902 -0.594564 -0.168446 -0.699575 0.306599 0.056086 -0.742621 -0.411985 -0.377724 0.426850 0.223399 0.274234 -0.234462 -0.944063 -0.047044 -0.452849 0.929962 1.286046 -0.406757 -0.055310 1.048229 -0.061391 1.303342 0.144612 0.514783 -0.017881 0.348727 0.099205 0.534638 0.359747 -0.073160 -0.179082 0.237095 -0.253898 0.412496 -0.715873 -0.915980 0.101294
2518 -0.019197 -0.786026 0.577461 0.168980 -0.672703 -0.954021 0.537672 0.417288 -1.372760 -0.187481 0.212557 0.085086 0.154441 -0.566455 -0.434525 0.212930 0.634257 0.779438 0.181540 -0.384648 -0.171331 0.689327 -0.555224 0.514849 -0.713057 -0.312637 -0.154895 0.329939 0.326209 0.420371 -0.174168 0.434582 -0.529576 0.104659 -0.734516 0.000915 1.279882 -0.105954 -0.267568 0.440580 -1.462943 -0.329533 0.305268 -0.069871 0.350700 0.058840 -0.172537 -0.087281 1.419635 0.042954 -0.541515 0.725290 -0.873197 0.356993 0.025606 0.274979 -0.452896 -0.044397 -0.240311 -0.108244 0.142589 -0.123026 0.065670 -0.460622
2534 -0.953663 0.105422 0.276709 0.189151 0.306708 -0.189637 -0.178282 1.315015 0.203435 0.638488 0.156568 -0.079466 -0.101921 -0.219562 -0.747486 -0.514477 0.337709 0.429056 -0.472649 0.359377 -0.458225 0.313579 -0.343662 -0.157573 -0.026172 0.156434 0.576336 -0.292046 0.939362 -0.195751 0.264182 0.142461 -0.737811 -0.015151 1.290690 0.244472 -1.471297 -0.184850 0.156318 0.892494 0.298241 -0.650325 -0.291171 -0.277528 -1.053221 0.604171 -0.878866 0.585263 -0.418830 -1.346606 -0.364841 0.013434 0.720243 0.241254 -0.577032 0.100940 -0.177034 0.067293 0.000436 -0.009921 -0.876143 0.903586 -0.162881 0.339914
1313 -0.362482 0.838368 -0.927642 -0.408327 -0.213384 -0.312015 0.297857 1.052637 -0.173167 -0.106352 0.048840 0.717383 -0.763575 0.859710 0.059307 -0.637172 -0.320790 -0.754561 0.470032 -0.686564 -0.573055 0.689428 -0.186464 0.049875 0.956250 -0.029111 -0.126217 -0.309891 0.334637 -0.182914 -1.322126 0.086830 -0.552062 0.085260 -0.158961 -0.315371 -0.275748 -0.007222 0.463716 0.916395 -0.589322 -0.411456 0.313420 0.320824 0.596945 -0.494420 0.045948 0.370801 0.056129 -0.477280 -0.324940 -0.338487 0.920471 1.048666 0.594740 0.281239 0.497039 0.586427 -0.001826 0.522064 -1.617415 -0.122693 -0.633683 -0.302393
2063 -0.570720 -0.088008 -0.552618 0.068057 -0.330201 0.598734 0.397483 0.089583 1.315513 0.276792 0.062110 -1.351012 0.103973 -0.324239 0.188760 -0.675169 0.088140 0.534828 -0.263517 -0.270387 -1.069712 -0.101733 0.044608 0.557602 0.201016 0.351505 -0.631037 0.696171 0.639304 0.374541 -0.498025 0.434395 -0.125357 -0.373729 0.607765 -0.285867 -0.929457 -0.485619 0.426189 0.046620 0.012545 0.001725 0.706401 -0.052464 1.019447 0.035003 -0.616051 0.456127 0.185233 -1.494940 0.398536 -1.158318 -0.757960 0.949698 0.161558 0.019981 -0.246163 -0.338319 0.458825 0.383093 -0.351998 -0.848644 -0.422544 0.515333
2679 0.267625 -0.442146 -0.683557 -0.012845 -0.101965 -0.152147 0.404850 0.727552 -0.327105 0.150910 0.431726 -0.516784 -0.060053 -0.626547 0.257281 -0.197797 0.281386 0.397169 -0.278577 -0.183652 -1.456822 0.441719 -0.015373 0.401264 -0.086039 0.536888 -0.716780 -0.561750 0.735277 -0.776070 -1.193918 0.644701 -0.108398 0.104389 0.703435 -0.577400 -0.298005 -0.099318 0.247740 -0.167141 -1.540473 -0.434181 0.089353 0.755738 0.740152 -1.323841 0.258023 0.483412 -1.425387 -0.804106 -0.562820 -0.537102 0.685681 0.673013 0.406347 -0.281406 -0.375484 0.256614 0.236111 0.189691 -0.569218 0.329430 -0.520014 -0.541300
1655 -0.633448 0.568948 -0.103289 -0.326121 0.029533 0.021936 -0.027095 -0.129689 0.211438 -0.085195 -0.451851 -0.327253 -0.053555 1.034512 0.553242 -1.031398 0.221195 -0.406866 0.456202 0.762882 -0.962273 0.602256 0.540170 0.403735 0.946594 -0.097434 -0.136712 0.888523 -0.279214 0.639322 -0.241861 0.465227 0.195551 -0.083599 0.333700 0.189554 -1.160715 -0.436925 -0.716076 0.068615 -0.108293 -0.248126 0.210800 0.230299 -0.282436 0.469677 0.026412 0.339349 -0.295091 -1.431300 0.509704 0.106889 -0.408457 1.225666 0.295952 -0.023597 0.357703 1.240460 1.042337 -0.542648 -0.587952 -0.941643 -0.286340 -0.063861
2394 -0.189255 -0.014500 0.179621 0.068578 0.300822 -0.339177 0.482580 0.561672 0.082539 -0.760402 0.166871 -0.413217 -0.783668 0.411709 -0.664918 -0.349361 -0.083961 0.636850 -0.158604 0.204699 -0.520882 0.166895 -0.944332 0.358781 -0.211437 0.349955 0.141378 -0.841127 1.548533 0.888262 -0.352837 -0.354623 -0.956800 -1.446643 0.465491 0.700132 -0.480596 -0.475438 -0.229515 0.226918 0.328542 -0.057902 0.959792 -0.861717 0.404430 -0.045336 -0.996015 -0.178521 1.147340 0.723516 0.225736 0.023225 0.366795 0.168380 0.571538 -0.968009 0.364548 -0.037124 -0.633630 1.085252 -0.622490 -0.554629 0.542112 0.253267
2351 0.011997 0.054679 -0.298910 0.271194 0.014945 -0.203639 0.070895 0.913279 -0.787298 -0.451753 -1.175972 -0.112375 -0.083883 0.632475 -0.019948 0.488387 -0.023041 -0.479156 0.515084 1.324336 -0.866561 -0.214704 0.006313 0.551006 0.086796 0.312629 -1.095766 -0.515716 0.786048 0.113110 -0.213359 0.221841 0.337515 0.922551 0.761631 -0.429156 0.070907 -0.012149 -0.044529 -0.117862 -1.391973 -0.177355 0.285611 0.855589 0.101903 -0.462400 0.307903 0.291858 -0.033481 -0.531028 -0.459059 0.051919 0.698486 0.243377 0.951936 0.041970 0.367208 -0.100314 0.343434 0.622773 -1.257902 -0.139310 0.379276 -0.608575
2143 -0.565887 0.131973 0.361545 0.405852 0.651579 -0.069883 0.316980 0.047462 -0.680083 0.108683 0.037988 1.130779 -0.872647 0.139163 0.909114 -0.324187 -0.825273 0.158830 -0.202989 -0.503275 -0.968515 0.370738 -0.564843 0.332170 0.680458 -1.068173 -1.225669 0.539822 0.120546 0.628694 0.377454 -0.387484 1.188321 -0.065369 0.617605 -0.327417 0.581978 0.042235 -0.036443 0.743395 -0.473180 0.100455 -0.476835 0.066229 -0.129637 -0.009735 0.144796 0.259157 0.308340 -0.651886 -0.122718 -1.266303 0.087772 0.736129 0.451933 0.306987 -0.042610 0.155200 -0.045611 0.531688 -1.212852 -0.971727 -0.370493 -0.159022
2155 -0.403009 0.175133 -0.527185 0.304148 -0.541472 -0.157641 -0.459569 1.127344 -0.394345 0.118022 -0.573529 0.727607 0.717293 -0.224602 0.675249 -0.473361 -0.714262 0.193585 0.468538 -0.263573 -1.045330 0.057931 0.354701 0.345307 -0.006905 -0.192648 -0.708574 -0.481519 0.381273 -0.851280 -0.389715 -0.116963 0.801361 0.199382 0.458174 -0.376471 -0.354201 -0.659034 0.047701 0.419378 0.716214 -0.315791 0.203148 -0.104345 -0.389911 -1.068373 -0.137533 1.727462 -0.385925 -1.155972 0.784431 -0.929068 0.605621 0.868507 -0.245685 0.114507 -0.002791 -0.026300 0.962345 0.457658 -1.057891 -0.666841 0.392241 0.597598
1351 -0.136960 0.039827 0.506466 0.179916 0.398790 0.819333 -1.864918 0.078572 -0.043435 -0.022246 0.112706 -1.730064 0.158032 -0.596293 0.833629 0.060780 0.429291 1.145581 -0.774593 -0.001155 0.259123 -0.841274 -0.643849 -0.200457 -1.414881 -0.036507 -0.513976 -0.433481 0.146315 0.682026 0.914617 0.134369 -0.402943 0.226410 0.024114 -0.258404 -1.556590 -0.757999 0.312571 0.244759 0.735806 0.423844 -0.507505 -0.800953 -0.113197 -0.071001 -0.026247 0.334110 0.243475 -0.219380 0.285421 -0.489463 -0.642877 -0.149333 0.138506 0.217399 -0.183894 -0.423835 0.129065 -0.354170 0.588946 0.139756 -0.008111 -0.850570
1501 -0.275326 0.225516 -0.251504 -0.392293 0.168099 1.070566 0.390009 -0.767226 0.372228 -0.846733 0.349390 -0.821026 -0.212822 1.387763 0.020057 0.154600 0.487885 -0.305784 -0.742652 0.113136 -0.462555 -0.972764 -0.402495 -0.198931 0.560056 0.633593 -0.488827 1.190416 -0.440765 0.728466 -0.222630 0.094647 0.248618 0.368515 -0.661010 -1.082065 -0.867261 0.609926 0.100129 0.868222 -0.409384 0.587045 -0.443312 0.072584 1.066221 0.370634 -0.192824 -0.286273 -0.451055 -0.157799 -0.734306 0.336553 -1.202138 0.217818 0.102818 -0.614444 -0.414994 -0.733209 0.182758 -0.494588 0.158868 -0.089920 0.178492 0.027570
279 -0.837412 0.081634 0.028074 0.536603 -0.283916 0.179560 0.276111 -0.100569 0.454116 1.009173 0.623799 -1.008312 -0.605462 0.661341 -0.559619 -0.414037 0.090098 0.937458 -0.755093 -0.129545 -0.368427 -0.201420 0.017757 0.017935 0.241578 0.764607 -0.073417 -0.594038 1.449267 0.353834 -0.124776 -0.207550 -1.011484 -0.102991 -0.108994 0.164138 -0.356740 -0.151174 0.427377 -0.314631 -0.353442 0.352089 -0.392316 0.635467 -0.245699 -0.513831 1.005151 0.166317 0.785613 -1.404515 -0.216377 0.436048 -1.086707 -0.308060 0.684660 -0.526541 -0.162287 -0.987947 0.407285 -0.208591 -0.095515 -0.218555 -0.624788 -0.442450
2493 -0.922818 -0.083649 0.564493 0.308249 0.170308 -0.409507 -0.218679 1.034536 -0.735661 0.668291 0.798671 -0.144546 -0.067339 -0.821446 -0.475973 0.384340 -0.177998 0.099011 -1.102865 0.220610 -0.678914 0.896170 -0.485632 -0.699162 0.188410 0.236450 -0.941119 0.113595 0.012397 -0.642133 -0.367296 -0.159452 -0.512302 0.183054 0.903553 0.068335 -1.223919 1.013026 0.265773 0.590491 -1.126824 0.957144 0.850476 0.402710 -0.762436 -1.172360 -0.092085 0.055185 0.040313 -0.452879 -0.077005 -0.337943 -0.049763 0.076688 0.258604 0.106897 0.345546 -0.537598 -0.357873 0.112681 -0.720697 -0.546978 0.038528 -0.681509
1013 -0.816640 -1.284624 -0.498877 -0.040761 -1.222186 -0.002742 0.155802 0.497432 0.852284 1.129702 -0.439398 0.117428 0.944719 0.287357 -0.208025 -0.151549 -0.015212 0.791743 -1.283659 0.062962 1.356810 0.638499 0.203727 -0.815715 0.062825 -0.250022 -0.104227 0.264101 0.435797 0.540737 -0.206435 -0.238411 0.292663 0.030889 0.300823 0.809364 -1.100016 -0.200478 0.131413 0.680793 0.638098 1.320617 -0.286620 -0.243783 -0.778737 0.221736 -0.578588 0.037198 -0.366186 -0.477628 -0.273189 -0.690160 -0.484217 -0.078563 -0.570997 0.580925 -0.533402 0.311443 0.176367 -0.100266 0.388982 0.234030 -0.574495 0.145480
2175 -0.984388 0.176414 0.333720 0.119710 -0.701315 -0.607310 -0.286164 0.211917 0.175163 0.277855 -0.036448 -0.078644 0.165505 -0.193878 0.294978 -0.849355 0.326789 -0.134450 -0.904366 -0.567574 -1.526741 0.542689 0.808877 -0.351565 0.784621 -0.440388 -0.265761 0.589017 -0.436689 -0.038378 -0.123830 -0.136860 -0.420118 -0.188094 0.392462 0.267501 -1.102258 -0.446481 0.360249 0.432791 0.470056 -0.060183 -0.300344 -0.361736 -0.386415 0.198482 -0.181570 1.339632 -0.150218 -1.651504 0.001604 -0.039234 -0.077104 0.322864 -0.376375 0.260699 -0.357763 -0.718630 0.947084 0.660432 -0.504857 -0.915732 -0.066654 0.737815
1941 0.250061 -0.628299 -0.280724 0.058596 -0.374723 -0.372348 -0.033862 -0.664815 -0.214147 0.548255 -0.168360 0.633132 -0.279418 0.015177 -0.497781 0.036146 0.577627 0.954381 0.011046 -0.676043 0.525754 0.441976 0.854648 -0.163163 -0.529994 0.594238 -0.015609 -0.652137 0.391777 -0.364217 -0.146799 -0.150846 -0.145956 -0.043756 0.138791 -0.765471 0.158830 0.553183 0.417392 0.473983 -0.219161 -0.186963 0.445946 0.178431 -0.344928 -0.062162 -0.668142 0.529663 0.094509 0.488742 0.485399 0.919583 0.639072 0.405910 -0.615436 0.416192 0.417019 -2.066382 1.153752 -0.040496 -0.740061 -0.191030 0.120292 0.648270
1735 -0.700590 -1.124613 0.579402 -0.720103 0.371589 -1.217930 -0.151781 -0.298660 -0.113461 0.499898 0.149119 -0.024416 0.135742 -0.417060 0.344056 0.507162 0.679189 -0.409787 -0.622883 1.373493 -0.277312 -0.171537 -0.270403 -0.808709 -0.492702 0.105042 -0.013376 0.770921 0.165096 1.255607 -0.699858 0.763486 -0.375942 -0.193040 0.122304 -0.093454 0.317970 -0.420785 -0.827907 -0.187799 -0.799689 -0.752612 0.350731 0.544794 0.192639 0.191731 0.074705 -0.666954 -0.922733 -1.074009 -1.136944 0.654681 0.263609 0.641026 -0.053378 0.067651 -0.644644 0.615256 -0.336483 -0.975010 0.086292 0.888831 0.391554 0.549830
2476 -1.421210 0.781748 -0.036292 -1.692866 -0.049136 -0.465398 -0.549786 0.211425 -0.393480 -0.524848 0.129860 -0.356551 -0.196177 0.428283 -0.361580 1.036411 -0.354199 -0.526227 -0.324892 -0.089902 0.583712 0.889576 -0.197932 -0.066380 -0.485154 -0.250881 0.156933 0.570249 -0.030708 -0.709341 -0.181375 0.548962 -0.312585 0.081814 0.461817 -0.803411 -1.109221 0.466843 0.248721 0.026268 0.799525 -0.045796 -0.048294 -0.249811 -0.656577 -0.430494 -0.057701 0.156729 0.392034 0.663293 0.078620 1.139179 0.128393 0.429103 0.101352 -0.135406 0.471360 -0.974387 -1.277669 -0.237784 0.072730 -0.241877 0.951577 -0.532153
2160 -1.376615 0.110281 0.800493 -0.756152 0.542714 -0.166353 -0.412392 0.130499 -1.051625 -0.135551 -0.145212 0.243037 -0.337097 0.037983 0.756499 -0.018643 -0.367261 -0.494225 -0.002326 0.538577 0.195311 0.621930 -0.737888 -0.374281 -0.209501 0.103713 0.520165 0.067420 -0.565401 0.495034 -0.208580 -0.089454 0.237976 0.537181 1.431159 -0.539946 0.247837 -0.354006 -0.822834 0.795421 0.390850 1.230535 0.089915 0.381459 -0.529005 -0.342773 0.497064 -0.174629 0.083981 -0.556817 -0.415074 0.229674 0.022695 -0.294505 0.256303 -0.435421 0.179066 1.332023 0.459987 -0.807850 0.500552 -0.292558 0.858743 -0.926541
1269 -0.673490 -0.011856 0.702982 0.025000 1.092038 0.122919 -0.105086 -0.261417 -0.353801 -0.559509 0.547686 -0.030439 -0.407746 0.552342 0.453453 -0.564290 -0.511407 0.015461 -0.546739 -0.157434 -0.029503 -0.030931 -1.681351 0.447901 0.608345 0.288906 0.099557 0.886718 -0.843235 0.805348 0.685230 -0.818795 0.392865 0.582382 -0.391556 -0.883244 -0.440933 0.711118 -0.857964 0.483969 -0.052723 0.336547 -0.981686 0.644627 0.032535 0.398101 -0.260426 -0.537037 0.003317 -0.450500 -0.224801 0.419263 -0.707182 -0.401892 0.316076 -0.247249 0.009363 -0.622256 0.825177 -0.627735 -0.544415 -0.408802 0.481114 -0.879580
2495 -0.357467 0.671174 0.337344 0.042332 0.641991 -0.206863 -0.125507 -0.079711 0.633335 0.214636 -0.766093 0.091090 0.397229 0.241949 -0.474618 0.244167 -0.292825 -0.159107 0.180867 0.316658 -1.144764 -0.081218 0.083486 -0.909362 -0.119444 -0.593462 -0.580837 1.463878 0.102261 0.093658 0.686981 0.271180 0.227959 0.215844 0.419454 -0.220294 -0.552508 -1.003157 0.975110 0.676968 0.076208 0.897621 0.668717 -0.246893 -0.066001 0.154330 -0.314804 0.288834 0.311239 -1.186769 -0.457042 0.533783 -0.980634 1.111599 0.058997 0.803231 -0.037942 0.217418 -0.475963 -0.098416 0.765205 -1.171473 1.223456 -0.566693
2405 -1.770550 0.219661 1.133171 0.772224 -0.255023 -0.128697 -0.082508 -0.289948 0.513030 0.494632 -0.712907 0.278457 -0.326163 1.255598 0.071832 -0.786737 -0.575525 -0.210684 0.210096 0.609564 0.223441 0.191511 0.526211 -0.999829 -0.058877 0.393865 0.139780 -0.040949 0.253946 0.061251 -0.105893 0.064116 0.729146 0.143979 0.772239 -0.059638 0.340021 -0.093522 -0.295769 0.065536 0.641573 0.828496 0.697233 0.546410 -0.057982 -0.363776 0.466014 0.503923 1.241850 -0.023645 -0.484997 -0.108857 -0.569191 -0.429144 0.329735 0.122714 0.116081 -0.789395 0.387010 0.073469 0.079805 -0.266891 0.738754 -0.694148
2123 -0.743503 0.558256 0.274416 -0.255735 0.411943 -0.181693 -0.209742 0.768276 -0.271293 1.031292 -0.092009 -0.659124 0.576633 -0.223625 -0.022246 0.516541 -0.142006 -0.074009 0.021503 0.964505 -0.574398 -0.492612 -0.301962 0.397273 -0.069277 -0.313222 -0.307763 0.042266 0.100181 -0.684149 0.222273 -0.107171 -0.065806 -0.519017 0.836613 0.494253 -1.347400 -0.397549 0.196698 1.066654 0.495657 0.043605 1.184983 -0.895009 -0.456683 0.048513 -0.635638 0.806867 0.225640 -1.239829 0.160015 -0.475989 -0.945634 0.510671 -0.689864 -0.265600 -0.051570 0.102713 -0.165976 -0.262575 0.600555 0.036222 1.137636 1.024774
1791 0.004334 -0.318386 0.285084 0.241990 -0.745717 -0.004081 0.352039 0.589822 0.034146 0.228259 -0.312565 -0.602539 0.275808 0.242326 -0.459721 -0.323063 -0.111267 0.433761 -0.126303 -0.568076 -0.391879 -0.471113 1.099727 0.115002 -0.555172 0.306111 -0.334241 -0.232472 0.192854 0.150891 -0.240580 1.142515 -0.957221 0.014651 -0.184696 -0.069032 -0.148482 -0.616177 -1.240577 0.593532 0.410002 0.377134 0.815634 0.200298 -0.360419 0.223410 -0.193280 -0.113934 0.562593 -1.120898 0.331911 0.596769 0.138921 0.805694 1.103305 -0.291459 -0.197415 -0.650451 0.589043 0.521033 -0.076385 -0.513579 -0.358039 0.820959
2326 -0.826594 -0.088978 0.661288 -0.242696 0.105777 -0.200770 0.328734 0.414725 -0.469411 -0.300195 -0.262389 0.217641 0.273297 0.485514 -0.720049 -0.020127 -0.766772 0.069823 -0.520820 -0.056005 0.230927 -0.207401 -0.352270 -0.277612 -0.195744 0.792904 0.573662 0.654814 0.013089 -0.398896 -0.735112 0.167366 -0.004588 0.954902 -0.055455 -0.656107 0.227580 0.345978 -0.704202 0.787208 0.528511 -0.013379 0.323515 0.252887 -0.130085 -0.094029 -0.453884 -0.797363 1.498684 0.591919 -0.600203 -0.183956 0.685046 0.104770 0.101531 -0.614216 0.292742 -0.089679 -0.893493 -0.340596 -0.744901 1.498031 0.683313 -0.486740
833 -0.325505 0.485717 0.180421 0.176649 0.679159 -0.638747 -0.159992 -0.129526 0.910018 0.166379 -1.067009 -0.097895 0.181267 0.146420 -0.413058 0.161096 -0.068838 -0.093092 0.115755 0.203211 -1.151077 0.131938 0.100897 -0.912100 -0.120198 -0.711681 -0.110320 1.331249 0.221230 0.410992 0.433570 0.673581 -0.178829 0.214112 0.872117 -0.306460 -0.318556 -1.162879 1.120189 0.835850 0.091458 0.862387 0.646350 -0.240921 -0.159926 0.298866 -0.271599 0.183247 -0.016196 -1.080181 -0.433181 0.447859 -0.554033 1.052881 0.188809 1.048140 0.024161 0.170775 -0.180823 0.030077 0.810669 -0.851286 1.195919 -0.629080
1042 0.075174 0.387350 0.553575 -0.394484 0.761018 -0.692536 -0.155458 0.883050 -0.439071 -0.612142 0.138936 0.523747 0.470257 0.594775 0.237049 0.189495 -0.117927 0.143345 -0.476667 0.170155 -1.081232 -0.159032 -0.209509 -0.693050 -0.375428 -1.433964 0.693763 -0.234635 -0.028845 -0.202098 -0.438253 0.319519 -0.390335 0.830150 0.326469 0.043357 -0.259812 -0.382957 -0.820709 -0.878533 0.243877 -1.332754 -0.077855 0.012061 -0.673018 -0.523909 0.777992 -0.778169 0.543593 -0.446657 -0.114378 -0.076850 -0.146086 0.629351 1.682011 -0.058897 -0.309356 0.558772 0.159695 -0.092994 0.682894 -0.541984 0.124552 -0.864504
1687 -1.032510 0.637221 0.593191 -1.933647 -0.036367 -0.084643 -0.915482 0.347628 -0.005113 -0.291244 0.430773 0.188030 -0.086502 0.358843 -0.333289 0.575217 -0.589218 -0.784822 -0.188275 0.034243 0.485369 0.437237 -0.464780 -0.535515 -0.379015 -0.361917 -0.161986 0.048310 -0.254902 -0.178878 -0.475499 0.752214 -0.309576 -0.466795 0.649140 -0.546390 -1.026651 0.793983 0.264886 0.055840 1.050924 0.363680 -0.253889 -0.386459 -0.375505 0.059110 -0.186373 -0.109027 0.642395 0.896205 -0.049732 0.614889 0.203872 0.220638 -0.276723 -0.106690 0.751859 -0.360937 -1.465848 0.334618 0.407129 0.084878 0.658086 -0.473062
2503 -0.303839 0.957704 0.463963 -0.734379 0.201452 -0.149579 -0.292604 -0.421075 -0.166735 -0.474137 -0.021723 1.292615 -0.493729 0.301212 0.490106 -0.601286 -1.322683 -0.117452 0.381796 -0.558241 -1.041641 -0.432328 -0.195206 -0.222788 0.040332 -0.615192 -0.272059 0.131859 0.258407 -0.004965 -0.252569 0.596915 -0.292506 -0.203434 0.301159 -1.301166 0.469544 -0.049050 0.932541 -0.124586 0.488341 0.357115 -0.315669 0.408123 0.724177 -1.112845 0.576431 0.367289 0.995579 -0.386223 0.156334 -0.065703 0.055477 0.652409 0.592941 0.089966 0.973099 -1.266131 0.070687 0.909958 -0.086264 -0.673734 0.862539 -0.740576
2241 -0.665607 0.263091 0.523940 0.235665 0.456845 0.141702 0.661429 -0.798682 0.351516 -0.042400 -0.166940 -0.301753 -0.476464 0.180946 0.274013 -0.438733 0.030660 0.324501 0.154467 0.342463 -0.093609 0.053256 0.608529 0.148453 0.075397 0.611872 -0.132053 0.135693 -0.604326 -0.198877 -0.018909 -0.301824 -0.129307 -0.624340 0.660706 0.186289 0.171052 -0.543901 -0.048002 0.319153 1.433366 0.663800 1.412813 -0.397724 -0.181185 -0.339862 0.495111 -0.326064 1.414681 -0.297364 0.165756 -0.072802 -0.912301 -0.144472 0.122162 -0.075768 1.130605 -0.488151 -0.758019 0.228221 1.113109 -1.191706 1.124605 -0.040216
1256 -0.830244 0.080959 0.474171 0.046551 -0.427266 -0.613507 -0.283750 0.160478 0.248307 0.289158 -0.009531 -0.147824 0.255527 -0.192444 0.544451 -0.626296 0.195810 -0.098671 -1.096982 -0.429493 -1.664690 0.217543 0.786122 -0.602691 0.737244 -0.407280 -0.362375 0.733540 -0.418787 0.321112 -0.061169 -0.081930 -0.365162 -0.161324 -0.067714 0.076271 -1.031069 -0.510309 0.372341 0.469645 0.548788 0.106144 -0.345837 -0.509180 -0.254612 0.100582 -0.167118 1.201853 -0.078836 -1.613422 -0.123059 -0.036789 0.249814 0.348697 -0.489565 0.380083 -0.325745 -0.592038 0.813279 0.580387 -0.476999 -0.891613 0.153880 0.666188
1529 -1.138172 -0.117413 0.277693 -1.056485 -0.047197 -0.089958 -0.852316 0.410519 -0.832388 0.243117 0.861153 0.585111 -0.102441 0.618069 0.321464 0.492022 -0.532259 0.263676 -0.085266 0.453322 0.206363 0.357136 -0.480831 -0.386679 0.234699 -0.361953 -0.698177 -0.244840 -0.210133 -0.287746 -0.686736 0.006230 0.017593 -0.935300 -0.856232 0.122581 -0.060414 0.237969 -0.431756 -0.032822 1.211050 -0.979084 -0.016670 0.469970 -0.480470 -0.851025 0.782686 0.201422 0.610774 -0.037420 0.999142 0.090391 0.218296 1.161073 -0.164540 0.272812 0.416394 0.089754 -0.677765 -0.529517 -0.025168 -0.872416 -0.369900 -0.279769
1758 -0.696995 -0.653243 0.452719 0.724788 0.358011 -0.992445 -0.142966 0.004589 -0.733456 0.406448 -0.324815 -0.079511 -0.416611 -0.425630 0.706270 0.465346 -0.262628 0.615526 -0.138671 0.067921 0.454377 -0.202990 0.080228 -0.288755 -0.485285 0.178342 -0.474041 -0.289684 -0.092425 -0.881797 -0.587524 -0.073437 0.200045 -0.014533 0.448215 -0.251986 0.782728 -0.567800 -0.289947 1.075930 0.658049 -0.616331 1.508103 -0.005550 -0.908161 -1.043584 0.675805 0.303156 -0.148862 0.093081 0.336873 -0.111583 -0.019529 0.269862 -0.622947 0.808260 0.221718 -0.456955 -0.269458 -1.459630 1.144987 0.043992 0.633245 0.165328
1527 -1.096967 0.402702 1.188415 -0.200611 0.196718 0.101122 0.355827 -0.161628 -1.016017 0.529265 1.177663 1.222173 0.584261 -0.843374 0.245832 0.075097 -0.118101 0.816919 -0.562695 0.301216 0.305006 -0.361784 -0.297590 -0.840921 -0.890039 0.086805 -0.003189 -0.577319 -0.114659 -0.743724 0.630365 -0.293623 -0.066109 0.562550 -0.574904 0.098289 0.293849 0.449145 -0.376676 -0.336229 0.419599 -1.108944 -0.465242 -0.010927 -1.312319 0.371737 0.847829 -0.416853 -0.093642 -0.245618 -0.867206 0.253582 0.185993 0.222635 0.028708 0.469265 -0.161592 -0.794061 -0.353131 -0.524693 0.046871 0.532288 -0.777414 0.460113
2466 -0.855735 -0.203447 0.535570 0.638432 0.050173 -0.634291 -0.267269 0.122359 -0.860471 0.553739 -0.427518 -0.224001 -0.338752 -0.210248 0.589103 0.467942 -0.128230 0.504106 -0.079174 -0.293588 0.239106 -0.034915 0.494703 -0.243233 -0.438803 0.443107 -0.661691 -0.313742 0.056650 -1.079512 -0.624333 0.212801 0.305247 0.285088 0.831405 -0.724624 0.782848 -0.448654 -0.311528 1.239791 0.307879 -0.272775 1.243916 -0.047356 -1.071998 -1.130859 0.799884 0.321936 -0.000257 -0.082841 0.225376 -0.071812 0.111338 0.352831 -0.681475 0.771567 0.261037 -0.387553 -0.466944 -1.315484 0.898465 0.143763 0.204968 0.179525
2485 -0.822015 -0.772515 0.034582 1.112472 -0.993174 -0.146455 0.271042 0.854844 0.457385 0.742388 -0.475054 -0.544577 0.701522 0.640733 -0.256118 0.119976 0.341781 0.507057 -1.161067 0.126131 0.784939 0.225548 0.304018 -0.770885 0.196532 0.068370 0.171059 0.596520 0.324257 0.332767 -0.541072 -0.217610 -0.283334 -0.828552 0.020714 0.826480 -0.727186 0.216005 -0.184142 0.499400 0.093947 0.616843 0.501386 -1.102481 -0.274699 0.253667 -0.740869 0.111580 0.080458 0.085340 0.473584 -0.855671 -0.723350 -0.337492 -0.852638 -0.278840 -0.615606 0.449607 -0.870427 -0.294083 0.877059 0.022615 -0.610366 0.186973
1829 -0.561968 -0.203401 0.535939 -0.801177 0.227153 -0.927607 -0.624495 0.326935 -0.438767 0.316823 0.765849 0.823401 -0.512814 0.204595 -0.214052 -0.202902 0.815504 -0.258017 0.399721 0.348046 0.120744 -0.024310 0.740557 -0.898301 -0.356753 -0.397559 0.906454 -0.739853 0.218584 -0.503440 -0.047111 1.026810 -0.888758 0.137364 -0.435340 -0.845559 0.746830 0.559144 0.720170 -0.365034 -0.339122 -0.118045 -0.351653 0.745693 -0.945389 -0.162834 0.556743 0.801268 0.537016 0.042813 -0.247950 0.481502 0.985422 0.243784 0.035154 0.575787 0.253190 -0.370514 -0.104518 -0.040287 -0.373870 0.697953 -0.756124 0.141803
2054 0.422837 0.403895 0.416211 -0.516479 0.540285 -0.759712 -0.211952 0.565805 -0.372622 -0.663608 0.334910 0.260654 0.605805 0.484983 -0.056353 0.214559 0.096943 0.260446 -0.420649 0.113319 -0.618129 -0.178277 -0.451295 -0.698754 -0.236365 -0.820795 1.030643 -0.446007 -0.137714 -0.180840 -0.446520 0.290555 -0.618179 0.634449 0.083083 0.068402 -0.147789 -0.244706 -0.702192 -0.929476 0.088442 -1.070199 0.203818 0.228223 -0.538239 -0.779446 0.614023 -1.081019 0.318914 -0.104497 0.077906 0.318715 -0.031603 0.236494 1.639567 -0.064884 -0.321424 0.540763 0.396869 -0.191207 0.807570 -0.458165 0.033817 -0.993882
1262 0.199133 -0.767223 0.233272 1.110584 0.218058 0.250313 -0.262663 0.520347 -0.085966 1.077809 -0.349564 0.067119 0.552004 -0.804229 0.520099 -0.846420 1.141446 0.584664 -0.966671 0.537644 -0.491153 -0.139035 -0.071807 -0.951690 -0.272487 0.185667 0.571628 -0.329661 -0.276779 0.010880 0.884807 -0.210310 -0.455780 -0.735109 -0.220953 0.881194 -0.703803 0.372500 0.813646 -0.696617 -0.577389 0.712619 -0.150908 -0.227608 -0.168452 0.119763 -0.580051 0.445450 -0.492033 -0.686592 -0.137234 -0.152238 -0.344003 -0.770740 -0.113619 0.311246 -0.948047 0.763390 0.949994 -0.538241 0.617239 -0.489749 -1.484276 -0.616602
1798 0.221313 0.543423 0.093067 0.216725 0.580454 -0.337834 -0.074439 0.252556 0.067669 0.820777 0.477589 0.585824 0.956868 -0.597897 -0.094300 -1.125489 1.215976 -0.191985 0.098117 0.580175 -1.391696 0.056594 -0.550315 -0.915587 -0.131876 0.215136 1.297451 -0.211634 -0.311456 -0.669915 0.117237 -0.363865 -0.850921 -1.022373 -0.443936 0.136621 -0.677209 0.956306 0.890677 -1.319067 -0.876971 -0.134376 0.311951 0.216302 0.773623 -0.251771 -0.970856 0.454339 0.493718 -0.075768 -0.415798 -0.439818 -0.117589 0.086479 0.226516 -0.436910 -0.434581 0.517964 0.457992 -0.039548 -0.261409 -0.697496 0.106869 -0.475795
2270 -0.339796 0.700390 0.598886 0.146752 -0.609973 -0.267762 0.067685 0.454012 0.215178 0.655240 0.642765 -0.490084 0.186972 -0.180006 -0.233542 0.544790 0.633778 0.309846 -0.018003 0.313530 -0.432747 0.126976 1.158650 -1.034170 0.241017 0.246242 0.180930 -0.242148 0.066710 -0.456936 0.409058 -0.473833 -0.659993 -0.356298 -0.528169 0.497895 0.083707 0.079197 -0.221673 -1.156333 -0.157947 -0.509867 1.046672 1.252226 -0.623782 -0.159449 0.972714 0.065690 1.272129 -0.034908 0.458030 -0.313333 -0.076538 0.285134 0.432445 0.253270 -0.193312 -0.015031 0.383907 -0.244098 0.242324 -0.855742 -0.785534 -0.237934
1535 -0.051793 -0.296917 0.538603 0.418828 0.264352 0.802017 -1.717900 0.207939 0.079352 0.089979 -0.209922 -1.812024 0.178335 -0.461913 0.689693 0.284220 0.452723 1.067396 -0.768749 0.062884 0.254206 -0.884978 -0.504140 -0.293460 -1.403086 0.083278 -0.372547 -0.336853 0.187459 0.542855 0.644739 0.405409 -0.701884 0.398784 -0.101264 -0.220351 -1.481211 -0.819530 0.013043 0.504468 0.691937 0.478254 -0.600347 -0.721459 -0.044327 -0.060416 0.111167 0.277648 0.153106 -0.404669 0.047036 -0.184974 -0.567218 -0.052729 0.198966 -0.036818 -0.226865 -0.288551 0.024751 -0.539270 0.519235 0.528358 0.048879 -0.745845
2025 0.590642 -1.020798 0.093068 -0.474937 0.316517 -0.547630 -0.466057 -0.177991 0.096339 0.543648 0.332185 0.430615 -0.697910 -0.091347 0.518195 0.175528 0.041430 0.052986 0.001721 0.080787 0.012769 0.901588 0.255348 -0.981180 -0.881922 -1.031971 -0.182806 0.496194 0.084557 0.034790 -0.039145 0.465536 0.376603 -0.634865 0.231609 0.627355 0.221377 -0.052248 -0.219687 -0.555101 -0.720923 0.213624 0.877250 0.923902 0.274279 -0.632355 -0.290349 -0.904578 -0.434348 0.163415 0.318027 0.292514 -0.521635 0.439731 -0.329685 0.406988 -0.470863 0.993897 0.015302 -0.902493 1.308978 -0.400923 0.044045 -0.975829
2083 -0.572410 -0.702018 0.430138 0.441502 0.410661 -1.045592 -0.799648 0.538067 0.016558 0.197135 -0.380748 0.555792 0.317763 -0.928191 0.110523 -0.407907 -0.359915 0.217238 0.519435 0.483438 0.731142 0.023915 -0.289441 -0.325127 -0.626993 0.827587 0.546588 -0.098912 -0.014383 0.141211 0.547154 -0.401395 0.359029 -0.695839 0.110109 0.116783 0.543357 -0.245455 -0.548502 -0.171370 0.180671 -1.182831 0.793427 0.470829 -1.620500 -0.473902 -0.557876 -0.133684 0.151219 -0.014214 0.328585 0.007389 0.732007 -0.638672 -0.491779 0.157050 -0.164589 0.258964 0.381686 -0.826050 -0.370149 0.138210 0.680007 -0.274403
2247 -0.779743 -0.630035 -0.196633 1.189492 -0.313393 -0.733251 0.133645 -0.460564 0.070966 -0.216672 -0.235508 -0.391432 -0.286918 -0.215881 -0.621318 -0.854252 0.688465 0.144459 -0.586450 -0.428591 -0.312477 0.913929 0.218832 -0.147797 0.502909 1.184902 0.362012 -0.777380 -0.272456 -0.732940 -1.076286 -0.041192 -0.534721 -0.676676 0.412787 0.176835 0.668157 0.366366 -0.522393 -0.344682 -0.411283 0.151308 0.544928 0.396604 0.012652 -1.760247 0.010549 0.299417 0.511203 0.546372 0.258884 0.442321 -0.371454 -0.530952 0.336187 -0.867831 -0.237495 -1.008024 -0.428366 -0.157804 0.600297 -0.396713 -0.067520 -0.517219
415 -0.226895 -0.484991 -0.022300 0.450121 0.134863 0.381789 0.687688 -0.477340 0.075603 0.658365 -0.103126 0.093148 0.091518 -0.432183 -0.679728 -1.127677 0.600715 -0.139647 0.667548 0.300950 -0.956770 -0.097516 0.343427 0.345559 0.271037 -0.650292 -0.290572 -0.164783 -0.714909 0.453584 0.529250 -0.706857 -0.302840 -1.103642 -0.974813 1.040068 0.332327 0.149178 -0.217403 -1.125435 -0.367533 -0.432099 0.553288 -0.274280 0.074101 1.095360 -0.577111 0.505825 0.646122 -0.796000 -0.113765 -0.066228 -0.914999 0.330800 0.082618 -0.088451 -0.134677 -0.188332 0.129334 0.720618 0.079298 -1.512216 0.323281 0.887539
606 -0.136874 0.328826 -0.665051 0.793933 0.143435 0.390036 0.918913 0.120080 -0.429952 0.340252 -0.311143 -0.669243 -0.396535 -0.190580 -0.866496 -0.183824 0.463430 -0.829084 0.938249 -0.169756 -0.124897 -0.177823 0.251961 1.596014 1.055328 0.125905 -0.121008 -0.535090 -0.481839 -0.582810 0.391095 -1.092308 0.109963 0.526664 -0.339696 0.250922 0.326927 -0.101189 -0.069479 0.036985 -0.696508 -0.475462 -0.300185 -0.195080 -0.054859 1.266387 0.114214 0.925508 -0.520517 -0.737263 -0.752291 0.489673 -0.602387 -0.722646 -0.653687 -0.143098 -0.081349 0.211672 -0.067546 -0.124711 0.118167 0.219389 0.249786 0.458472
831 -0.004926 -1.489177 -0.817429 0.020812 0.432090 -0.326738 -0.483272 -0.379823 0.361779 0.208486 -0.493651 1.033226 0.545985 -0.521436 0.511367 -0.271316 -0.399956 1.167924 -0.564688 -0.392955 -0.323919 0.860153 -0.223400 -0.018368 -1.349090 -0.454469 -0.119362 0.348786 0.367686 0.920343 0.245783 -0.247918 0.190238 -0.438440 -0.354317 0.354762 0.116760 -0.355277 0.550517 -0.615790 0.707106 -0.520987 -0.467199 -0.604551 -0.167067 0.427542 -1.418487 0.757090 -0.253871 -0.218711 0.946371 -0.634177 0.428316 0.805924 -0.259555 0.166189 0.033787 -0.293090 0.425840 0.230912 -0.848874 -0.784850 -0.188657 -0.750594
859 1.186262 0.782436 -0.951178 -0.163912 -0.751306 1.149541 -0.392164 0.236808 0.762588 -0.621782 0.001522 -1.212009 0.119565 0.465102 -0.312453 0.201114 0.344995 -0.343199 0.540882 -0.649210 -0.089441 -0.036187 -0.000242 -0.098116 -0.250791 0.567173 0.335409 -0.026585 0.036822 -0.113846 0.628306 -0.577541 -0.427862 0.740677 0.203672 0.177818 -0.857356 -0.557903 0.427908 0.730236 -0.326200 -0.058759 -0.580498 -0.608762 -0.197177 0.653253 -0.481273 0.358719 -1.298377 1.001558 0.422615 -0.702515 -0.521633 0.322711 -0.278362 -0.136091 -0.267989 0.621471 0.526256 0.170748 0.170410 0.435295 -0.722359 0.759169
1095 0.767903 -0.111023 0.061599 -0.531215 0.042904 0.696977 0.342384 0.093048 -1.036949 0.083413 0.595767 -0.075482 0.577333 0.247548 -0.324139 0.177950 0.123870 0.500769 0.673785 0.551886 0.383766 -0.706052 0.052847 0.591744 -0.408871 0.127685 -0.259029 -0.702152 -0.170290 -0.634614 -0.195092 0.111919 -0.124476 1.113691 -1.305300 0.209578 0.355942 0.573599 -1.460528 -0.679240 -0.796381 -1.480990 -0.337455 0.312626 -0.469076 0.334166 0.389855 -0.779771 -0.196192 0.022935 -0.224222 0.022004 0.005954 0.678907 0.148005 -0.118912 0.142087 0.313426 0.294016 -0.805333 -0.469448 0.973883 -1.122181 0.989698
1190 1.396508 0.382485 -0.773903 0.104284 -0.046129 -0.147335 -0.548810 0.332402 0.426763 0.095990 -0.689959 -0.120853 0.005334 -0.303144 0.457986 0.579742 0.300482 -0.503259 0.422580 0.256945 0.467090 -0.401766 -0.125542 0.615430 0.636502 -1.301014 0.173369 -0.114496 0.365288 0.458903 1.171923 -0.598465 0.459419 -0.193821 -0.265372 0.962153 -0.417553 -0.738458 1.147362 0.117323 -0.090516 -0.024134 -0.615244 -0.860198 0.340108 0.618908 -0.370876 0.709839 -0.253243 0.115654 0.403690 -0.311499 0.111938 -0.519472 -0.384782 0.786750 -0.408763 0.988972 0.663144 0.448033 -0.124843 0.354163 -0.467088 0.959328
1196 1.538048 0.257673 -0.707078 0.566618 0.514656 0.370831 0.534823 0.227309 -0.772355 0.089106 -0.144013 -0.183148 0.180503 -0.079632 0.427638 1.113206 -0.055342 0.823231 0.132185 -0.429176 0.497255 -0.054388 -0.249285 0.487229 -0.570920 -0.657862 -0.548816 0.262102 0.432818 -0.035834 0.781809 -0.263482 0.991120 0.548280 -0.151788 0.233340 0.177033 -0.468051 0.141208 0.425351 -0.844978 0.013038 0.378494 -0.843437 -0.231751 0.193302 0.547557 -0.149449 -0.777596 0.693166 0.719622 -0.711098 -0.755891 0.306394 0.202106 0.608389 -0.003149 0.793639 -0.461911 -0.406618 1.036730 0.290588 -0.720438 0.117090
1593 1.146535 0.817783 -1.158027 0.661177 -0.069481 0.825190 0.282641 -0.286436 0.172740 0.244721 0.157507 0.269300 0.224184 0.118219 0.437893 0.114233 0.638732 -0.119547 -0.398048 -1.079633 -0.065967 -0.102882 0.260289 -0.294210 -0.045026 0.037183 -0.497556 0.262562 -0.196369 -0.350794 0.311460 -0.900378 0.058330 0.512156 -1.015615 0.117045 -0.676228 0.274684 1.400766 0.518417 -0.414750 0.982755 -0.438262 -0.832038 0.141073 0.247477 0.195959 0.649474 -0.765165 0.617445 -0.306202 -0.456952 -0.895052 0.068102 -0.357376 0.730067 0.284128 -0.590129 0.110203 0.326880 -0.056814 -0.243654 -0.934035 -0.065350
1645 0.675854 0.322941 -0.425662 0.510206 0.214609 -0.630518 0.000784 -0.065378 0.094088 0.240030 0.557222 -1.106722 0.244344 -0.719974 -0.178745 0.293404 0.560932 -0.241415 0.044162 -0.158384 0.172024 0.045496 -0.559233 0.950128 0.926786 -0.054066 -0.188702 -0.185939 -0.718850 -0.340532 0.103759 -0.832627 0.295532 0.004390 0.201429 0.578201 -0.270572 -0.322808 -0.137655 -0.129622 -1.437793 0.011616 0.345774 -0.155274 0.726095 -0.481916 0.603942 -0.202681 -1.169680 -0.429730 -0.391757 -0.039082 -1.195544 -1.400475 0.301999 -0.264652 -0.887357 1.266194 0.386785 -0.459580 0.818365 0.212052 -0.046811 -0.173298
1647 0.569765 -0.606570 0.195861 0.349255 0.288811 -0.281841 0.010465 0.510133 -0.006473 1.381740 -0.124151 1.093188 0.660447 -0.972900 0.816248 -0.483406 0.364292 0.745695 -0.043051 1.111823 0.200382 0.034712 -0.319013 -0.636306 -0.546164 -0.627237 0.386725 -0.571095 0.369177 -0.471548 0.459179 -0.711532 0.281048 -0.143991 -0.624820 1.392779 -0.281294 -0.188601 0.361438 -0.443940 -0.177525 0.132391 0.305881 -0.121006 -0.431907 -0.441520 -0.253411 0.399262 -0.031629 -0.081582 -0.851436 -0.830485 0.280078 0.468488 -0.291954 0.733356 -0.175657 1.229138 0.527988 -0.569596 -0.291189 0.576412 -0.238935 0.614306
1693 1.147857 1.140242 -0.361221 -0.600846 -0.149177 0.052497 -0.666157 -0.245525 -0.255566 0.127956 0.949869 0.418474 0.466326 -0.426678 -0.121068 0.081242 0.257695 -0.874391 0.803821 0.093016 0.364577 -0.044132 -0.014345 -0.343594 0.486833 -0.680009 -0.038755 0.065785 -0.844573 -0.651626 0.666025 -0.716202 -0.159878 0.966587 -1.276079 0.251753 -0.390215 0.599889 0.631435 -0.444897 -1.265942 -0.689147 -0.315807 0.093422 0.241300 0.211303 0.212833 0.083688 -0.401049 0.160766 -0.344233 -0.140860 -0.101706 0.454959 -0.113593 1.164574 -0.106033 0.419863 0.582848 -0.172217 -0.825574 0.367434 -0.797261 0.611608
1750 0.376430 0.097134 0.457951 0.041827 0.438916 -0.120268 -0.239352 -0.035712 -0.410696 0.127887 -0.338903 0.488362 1.320560 0.376494 0.289984 -0.037259 0.451770 0.699420 -1.107997 0.598832 0.483105 -1.546154 -0.425296 0.135794 -0.221496 -0.516439 -0.445248 0.536614 -0.379765 1.104957 0.574384 -0.304672 0.244130 -1.023596 0.463959 0.592451 -1.304362 0.245202 0.372380 -0.143168 -0.299572 -0.414554 -0.064272 -1.065482 0.314046 1.009260 -0.803990 -0.554918 0.634076 -0.336357 0.186037 -0.751449 -0.866139 -1.081173 0.178762 -0.554460 -0.380886 -0.206341 0.796732 0.438481 -0.068086 0.102957 0.343450 0.842327
1999 0.114401 0.443084 -0.369776 -0.010158 -0.195889 -0.068453 -0.064707 0.718215 0.278660 1.281370 0.071490 0.598223 0.544437 -0.473987 0.555961 -0.457001 0.200178 0.331150 -0.330516 -0.421575 -0.444928 -0.604231 -0.309627 -0.194479 -0.896410 -0.962347 -0.001607 -0.918967 0.095365 -0.228939 0.497793 -0.677141 -0.756708 -0.522511 0.281665 1.061640 -0.578918 -1.261225 1.413876 -0.458363 0.461687 0.428833 -0.297694 -0.224500 -0.452075 0.226978 0.848071 0.744350 -0.035954 -0.627420 -0.744522 -1.163324 -0.450190 -0.597452 -0.099892 0.294284 0.430853 -0.098929 0.113488 0.560948 0.839595 -0.112559 0.443265 0.096100
2097 0.136203 0.058220 0.007236 0.282448 0.411353 0.247419 -0.410507 0.351857 0.397269 0.806801 -0.355850 -0.354822 1.248559 -1.407082 0.166776 -0.642757 0.586348 0.371386 0.510047 1.215597 -0.432778 -0.578603 -0.192041 0.340604 -0.705703 0.282622 0.261707 -0.554801 0.133824 -0.467644 0.902688 0.020658 -0.208356 -0.672949 0.693365 0.858714 -0.613816 -0.922026 0.724703 -0.483706 0.017540 0.137303 0.332043 -0.460974 -0.319762 0.233327 -0.473184 0.669844 -0.569425 -1.339846 0.099125 -0.318988 -0.208153 -0.304941 -0.415181 0.021684 -0.354278 1.298640 0.644516 -0.183414 0.579534 0.148060 0.405041 0.381500
2126 1.065754 -0.160359 -0.229477 0.977028 0.675598 0.518696 0.823346 -0.186574 -0.165915 0.465641 0.674679 -0.450417 -0.319827 -0.318718 0.263121 -0.050081 0.945498 1.332539 -1.159419 -0.437106 0.105013 -0.472200 -0.600746 0.472955 -0.186937 -0.140533 0.011271 -0.611276 0.527484 -0.105429 0.401923 -0.600328 -0.242764 0.178122 -0.929517 1.021441 -0.955961 0.734336 0.648637 -0.132088 -1.051476 -0.234582 -0.610106 -0.844002 0.061663 0.112549 -0.229650 -0.317878 0.041794 0.524708 -0.656326 -0.393582 -0.798180 -0.700002 -0.037395 -0.238142 0.219832 -0.405271 0.010661 -0.110639 -0.255504 0.895550 -1.184653 -0.006063
2229 1.130758 -0.000807 -0.602657 0.173707 0.498699 0.792604 0.484399 -0.567219 0.063437 0.074627 0.683019 -0.224183 0.711077 -0.449106 0.340969 -0.234335 -0.347966 0.599653 0.257999 -0.210044 0.178453 0.356205 0.272093 0.478315 -1.530619 -0.252842 -0.779856 0.179376 -0.200603 -0.788334 0.425754 0.179080 0.746738 0.749215 -1.069403 0.233685 -0.517968 0.009969 -0.310312 -0.663745 -0.542489 0.168540 0.360632 -0.852777 0.438894 -0.124568 -0.538097 -0.340099 -1.213142 0.455440 0.089928 -0.759963 -0.228721 1.352479 0.190843 0.031336 0.318672 0.604135 -0.530802 -0.280005 -0.187362 -0.068435 -0.522456 0.146647
2463 0.905398 -0.797145 -0.970883 0.277817 -0.233389 0.561334 1.040363 0.144012 -0.006186 0.601870 -0.033989 0.056782 0.144644 -0.999456 -0.297586 0.011808 0.611773 0.037416 0.996997 -0.380271 -0.599022 -0.109915 0.713297 0.971196 -0.121030 -0.010556 0.109568 -0.506720 0.078186 -1.031287 0.187606 -0.724638 0.172203 1.037557 -0.563243 -0.099646 0.852432 -0.045703 0.296396 -0.331639 -0.927957 -0.361144 -0.682686 0.648087 0.074730 0.442991 -0.272695 0.974383 -0.576780 -0.424397 -0.606647 -0.483012 0.057847 0.145603 -0.975319 0.042001 0.251003 -0.017349 0.174479 -0.049116 -0.224448 0.397858 0.155652 0.530152
2484 0.340268 0.434260 -0.456869 -0.703193 0.627689 0.788467 0.547482 -0.589775 -0.202895 0.134775 0.250278 -0.500498 0.604546 0.057138 -0.180350 0.419097 -0.171531 -0.480126 1.200747 0.047877 -0.254725 -0.577237 0.402033 0.672498 -0.186801 0.318580 -0.306636 -0.264073 -0.819451 -0.888128 -0.247395 -0.701068 0.564653 1.870865 -0.028701 -0.375168 0.634466 -0.206669 -0.700573 -0.048871 -0.396927 -0.333717 0.071402 0.422043 0.073838 0.912067 0.683868 0.075804 -0.509741 0.048398 -0.648445 -0.836268 -0.616864 0.666808 -0.026604 -0.273265 0.271195 0.534873 -0.327365 -0.599424 0.274263 0.710645 1.046401 0.756777
2564 1.125099 -0.039965 -1.010079 -0.162905 0.031930 -0.718292 -0.465766 0.331970 0.087979 -0.161251 0.047548 -0.418893 0.141959 -1.234068 -0.077394 1.231885 -0.329373 -0.873133 -0.018276 -0.296450 -0.772958 0.417014 0.153338 0.523038 0.391354 -0.964902 -1.133312 0.006900 -0.419629 -0.476105 0.427952 -0.430299 0.470824 -0.285281 0.303674 0.354603 0.537834 -0.258077 0.743482 -0.701056 -0.871802 0.093552 0.052474 0.583109 0.510928 -1.132651 0.654051 -0.123729 -0.464157 0.278822 0.622094 -0.924418 0.074029 -0.315330 0.352627 0.055008 -0.662301 0.620344 -0.923811 0.893072 0.975722 -0.781894 0.072045 -0.449759
1119 -0.164737 0.658615 0.230916 -0.492887 -0.463442 0.555067 0.093329 0.022595 -0.668945 -0.332290 -0.316677 0.699223 0.761139 0.856420 -0.459198 -1.219319 0.236847 -0.494112 0.601028 -0.123257 1.601440 -0.208392 0.332130 0.142291 -0.736823 -0.337445 1.011276 -0.122322 -0.570962 -0.151062 0.474153 0.134397 -0.043968 0.811363 -0.841134 0.739680 -0.613062 0.446456 -0.789056 -0.212059 0.305348 -0.905110 -0.030952 -0.692459 -0.916385 1.852233 -0.742697 -0.332108 0.332532 0.201900 -0.230055 0.814762 -0.361985 -0.244460 0.012513 0.083744 0.134731 -0.168767 0.655790 -0.012623 -0.421350 0.737072 -0.740159 0.853967
2685 0.032965 -0.360095 0.402523 1.024076 0.019467 0.050398 -0.017273 0.206785 -0.717863 -0.242214 -0.093762 0.216939 -0.288181 0.528413 -0.409228 -0.297820 -0.380572 0.939997 -1.330476 -0.563150 -0.619154 0.042499 0.287564 -0.413790 0.062952 0.471917 -0.696171 0.102925 0.164057 0.130632 -0.394537 0.331380 -0.745416 -0.133796 -0.741130 -0.412607 -0.222601 1.280462 -0.357226 -0.205294 -0.428701 -0.526442 -0.810965 -0.298914 -0.228530 -0.576096 0.478205 -0.614452 0.480148 0.404823 0.121745 0.329534 0.753564 -0.075734 0.352397 -0.344966 0.424069 -1.433147 -0.542560 0.169711 -0.820519 -0.122817 -0.829982 -1.494628
2246 -0.851871 -0.792194 -0.381893 1.255408 -0.369453 -0.539557 0.062546 -0.495566 0.081397 -0.240913 -0.264804 -0.547850 -0.318303 -0.194230 -0.782308 -0.930984 0.667374 0.464391 -0.555745 -0.722370 -0.169977 0.964471 -0.111926 0.298007 0.220351 1.212812 0.176589 -0.555295 -0.193057 -0.328188 -1.184877 -0.170914 -0.619214 -0.573145 0.528093 0.091156 0.885637 0.068740 -0.420740 -0.296259 -0.382158 -0.377114 0.472048 0.289462 -0.148858 -1.665746 0.204740 0.480800 0.157007 0.262134 0.114852 0.243639 -0.579335 -0.429078 0.150842 -0.914827 -0.053547 -1.041119 -0.562944 -0.235284 0.383767 -0.310840 -0.104445 -0.570155
1983 0.459569 -0.568147 0.870308 -0.430522 0.678496 0.175825 -0.359027 -0.443658 0.303481 -0.769852 0.598722 -0.940570 -0.601067 -0.174053 -0.423532 0.841914 -0.294057 0.625365 -0.081253 0.489270 0.183449 -0.845152 -0.726981 -0.518539 -0.198686 0.836862 -0.251145 0.221917 0.117846 0.832185 0.000065 -0.413384 0.040182 0.840810 -0.434241 -0.194781 0.948753 -0.251178 -1.041086 0.114217 0.383692 0.352800 0.695559 0.898866 -0.371961 -0.818236 0.532359 -0.702456 1.008103 0.683635 0.034975 0.327198 0.689802 -0.009766 0.158079 0.465907 0.665380 -0.254332 -0.631496 -0.520849 -0.021597 0.373523 0.643911 -0.020529
1395 -0.344807 -0.453148 -0.593560 -0.117841 0.098662 -0.335828 0.297245 0.855361 0.177783 -0.514400 0.443203 -0.222700 -0.040688 -0.610385 -0.591927 0.285048 -0.978354 0.547956 -0.722459 -1.159019 0.647476 0.606566 -0.291542 0.929367 -1.243163 -1.144482 -0.307577 0.505871 0.682543 -0.411509 0.926676 -0.119859 0.185065 0.407070 0.565798 0.113725 -1.524101 -0.263241 -0.263187 0.165505 0.464998 -0.803223 -0.661830 -0.413563 -1.091197 0.848439 -0.936036 -0.351098 -0.754394 -0.239567 0.619082 0.093326 -0.197821 -0.030889 -0.089077 -0.168437 -0.447004 -1.254677 -0.737954 0.311093 0.105952 -0.075640 -0.035338 -0.096424
893 0.250798 -0.990642 0.307790 0.204380 0.852394 -0.521568 0.347418 0.876453 0.414371 0.005373 -0.197817 -0.483595 -1.044791 -0.539181 -0.472650 -0.020194 0.124881 0.134091 -0.363797 -0.254162 0.091118 -0.478472 -0.496106 0.149353 0.424011 0.199487 0.392797 -0.474984 0.266554 0.043193 -0.009224 0.155027 -0.948438 -0.861809 -0.346856 0.749743 -0.307417 0.110447 -0.314837 0.781189 0.541777 -1.678676 0.029814 -0.571912 -0.962304 -0.219035 -0.310143 -0.097458 0.418198 -0.442679 0.326888 1.560168 0.210480 -0.647324 -0.643791 0.198438 0.485457 -0.387364 -0.611436 -0.379911 0.526925 0.443227 -0.352347 0.131939
2079 0.060617 -0.290650 -0.343210 1.245932 -0.652230 0.599975 -0.153053 0.293539 0.792879 0.162624 -0.183994 -1.230450 0.215525 -0.278588 0.272094 0.063673 1.293474 0.752129 -0.653365 0.062572 0.516184 -0.035047 0.601569 0.093250 -0.131808 0.854291 0.183081 -0.209968 0.625937 -0.507674 0.237282 -0.418173 -0.530887 0.809074 -0.508993 0.071977 -1.170484 -0.084341 0.298764 0.031666 -0.065496 -0.335270 -0.249658 -0.208325 -0.630481 0.296381 -0.409726 0.657745 -0.925880 -0.028825 0.108398 0.566618 0.423679 -0.462130 -1.112747 0.703489 -0.146701 -0.816919 0.458383 -0.767576 -0.655737 0.549974 -0.462018 0.188107
512 -0.374671 0.225433 0.156523 0.770848 0.005998 0.641398 0.696563 0.185277 0.343038 -0.041159 0.499525 -1.302269 -0.573538 0.275126 -0.576467 0.310079 0.308734 0.497810 -1.014443 -0.078889 -0.310614 -0.448792 0.403477 0.858703 0.103942 -0.251744 -0.564979 0.370513 0.717417 -0.120464 0.572902 0.186475 -0.732420 0.194765 -0.371684 0.190949 -1.654060 0.621789 0.453859 -0.007181 -0.680913 -0.793528 -0.221405 -0.982137 -0.040346 0.753326 -0.498508 0.325501 0.441104 -0.314647 0.065421 0.127421 -0.797555 -0.165245 -0.276396 -0.293310 0.092505 -1.873815 -0.676625 0.371498 -1.069953 0.479823 -0.628442 0.510248
2286 -0.583306 0.358390 -0.017306 -0.013513 -1.096508 0.369633 -1.089075 0.349231 0.256683 -0.569468 0.341490 -1.620091 0.520567 0.635460 -0.743257 -0.490279 0.683048 -0.696122 0.654969 -0.455662 0.353588 -0.323171 0.008283 0.650014 0.830544 0.505464 -0.187593 0.401624 -1.009258 0.413786 -0.555900 0.066852 -0.554769 0.212327 -0.453593 0.107067 -0.694790 0.007414 -1.062228 -0.065098 -0.381613 -0.744732 0.217581 0.066554 0.056828 0.738180 -0.550268 0.608293 -0.600178 -0.068652 0.265148 0.123605 -0.424314 -0.165535 -1.068005 0.420900 -0.698298 -0.193697 0.125967 -0.350438 0.057781 0.676417 -0.126719 0.114173
817 0.461984 0.302363 -0.346133 -0.792610 -0.452821 -0.429115 -0.680797 0.580076 -0.377713 -0.317335 1.019392 -0.492942 0.076376 0.268606 -0.644620 0.634236 -0.073097 -0.504415 0.439996 -0.490690 0.868862 0.563695 -0.825990 0.433137 0.398016 -0.506956 -0.178674 0.003711 -0.172287 0.156649 -0.796779 -0.343033 -0.337473 1.127405 -0.584720 0.347827 -0.448286 -0.072679 -1.206264 -0.175588 -0.476123 -1.266852 0.250268 0.350814 -0.634244 0.262637 0.201666 -0.190265 -0.972020 0.697209 -0.064362 0.036909 0.325365 0.756472 -0.386218 0.977419 0.211731 0.435068 -0.486432 -0.740194 -0.421829 1.227346 -0.352696 0.386201
1510 -0.056499 0.129916 0.068300 0.684355 -0.303445 -0.827261 0.288658 0.640533 -0.669826 -0.061221 0.585947 -0.070784 0.007624 0.720660 -1.229831 0.086833 -0.389450 0.377780 -0.111468 -1.000719 -0.078776 1.040722 -1.003492 1.096310 0.454517 -0.356955 -0.834856 -0.463452 -0.018734 -0.039909 -0.433043 -0.580851 0.300749 0.567944 0.926221 0.658301 -0.325511 -0.120653 -1.252571 0.525718 -0.215918 -0.407694 -0.075571 -0.175151 -1.051562 0.459733 -0.257528 -0.246550 -1.265523 -0.304766 -0.620762 -0.065887 -0.125238 -0.060126 0.270296 0.333534 -0.539770 -0.564202 -0.127096 0.547233 -0.889067 -0.048282 0.040697 0.320577
1911 0.197371 -0.665933 0.189966 -0.000649 0.652007 0.638782 0.246160 -0.515746 -0.714389 -0.399253 0.315092 -0.260911 -0.693177 0.063477 -0.673518 0.307791 -0.176692 -0.543402 0.038257 -0.324403 -0.295595 -0.546505 0.271736 0.007591 0.343124 -0.108442 -1.770127 0.429934 -1.583619 0.585173 -0.070372 -0.393007 0.520524 -0.124373 -0.903617 0.383215 0.823229 0.332141 -1.255529 0.448808 -0.529390 -0.231004 1.113972 -0.031615 0.037318 0.383919 -0.162309 -0.581982 0.408540 -0.083054 0.202553 0.404521 -0.888996 0.069127 -0.159871 0.163252 -0.187181 -0.568881 -0.957024 -0.238056 1.020833 -0.924418 -0.034013 0.750926
1307 1.118709 -0.100898 0.056368 -0.248851 -0.199404 -0.104714 -0.375446 0.377052 0.138705 -0.889333 0.698267 -0.730075 -0.639222 -0.396068 -0.128527 -0.391526 0.699167 -0.083376 0.882239 -0.641176 -0.983409 0.324478 0.013533 0.629849 0.979358 0.077471 -0.070415 0.108242 -0.430618 -0.137385 -0.512946 0.075783 -0.719606 0.275827 -0.860791 -0.282922 -0.282619 -0.043723 -0.182248 -0.093615 -0.731905 -1.522333 -0.337278 0.653115 0.272458 -0.379707 0.104236 0.679075 -0.456815 -0.195752 0.118595 1.290597 -0.000648 0.139585 -0.709113 1.048138 0.581466 -0.446200 0.557176 0.158020 0.048745 -0.074840 0.089663 -0.631995
2642 0.195135 0.790150 -0.542030 -0.085151 0.145768 0.033312 0.452481 0.506771 -0.845501 -0.247049 0.579536 -0.963116 -0.053874 0.370896 -1.130978 0.252705 -0.221712 -0.424442 0.006050 -0.741125 -0.562899 -0.305497 0.213849 1.351645 1.012567 -0.617324 -1.235251 -0.158401 -0.655622 -0.267955 0.032233 -0.035972 -0.371585 0.290345 -0.732449 0.431340 -0.866457 0.076131 -0.834617 0.580334 -0.580226 -1.256827 0.431454 -0.796496 -0.617808 0.580247 0.209976 -0.268533 -0.458997 -0.747319 0.432304 0.523461 -0.969126 0.511326 0.187127 -0.175985 -0.117963 -0.427692 -0.431054 0.133974 0.270524 -0.421104 -0.638779 0.861169
2198 0.428106 0.593731 -0.230558 0.810426 -0.229172 -1.031611 -0.451228 0.362244 0.378960 -0.012452 -0.043503 -0.639770 -0.982714 0.492948 0.013439 -0.173147 0.131219 -0.824725 -0.001682 -0.692491 -0.231173 1.074819 0.087433 -0.229731 0.936835 -0.293406 -0.350824 -0.751217 -0.123588 -0.154006 -0.701455 0.073149 0.020570 0.226884 -0.119061 1.005162 -0.046741 -0.630526 -0.857331 0.616988 -0.877641 -0.042793 1.048948 -0.204343 -0.620798 -1.148106 0.478582 0.219891 -0.240698 0.833418 -0.070661 0.081147 0.339651 0.571419 0.643062 0.592620 -0.114579 0.678605 -0.171660 -0.237710 -0.455530 0.063209 -1.577148 0.461993
2203 0.190336 -0.055863 -0.724943 -1.077741 -0.361912 -0.397277 -0.658486 0.271215 -0.265557 -0.386768 1.309073 -0.116777 -0.513227 -0.373697 -0.274068 0.589385 -0.371789 -0.623464 -0.251047 -1.402647 -0.360509 0.688309 -0.539732 -0.202660 1.107078 -0.600741 -0.868074 0.016761 -0.742681 -0.168728 -0.725002 -0.857334 0.182379 0.669668 -0.959030 -0.124488 -0.474073 0.190256 -0.449206 0.311241 -0.070691 -1.269187 -0.602584 0.289625 -0.129987 -0.479095 0.497684 0.003075 -0.612667 -0.154698 -0.043915 0.311909 -0.949944 0.330595 -0.479583 0.837938 -0.556072 -0.621188 0.040962 -0.486582 0.165730 -0.083396 -0.401552 0.760471
2446 0.135150 0.515600 -0.780687 0.182098 -0.508397 0.784900 0.479195 0.295605 0.380674 -0.738864 0.288752 0.119793 0.134548 0.498578 -1.189121 -1.235446 0.310472 -0.432472 0.414881 -0.235119 -0.446872 0.146591 -0.060353 0.378415 1.474875 0.476742 0.073265 -0.179208 -0.482063 0.025328 0.042178 -0.709060 -0.372755 -0.387373 -1.057370 0.695048 -1.619003 0.944371 -0.571411 -0.334133 -0.764699 -0.279103 -0.016982 0.295565 -0.375866 0.325924 -0.829395 0.254945 -0.049089 -0.193385 0.481031 0.796049 -0.685895 -0.332233 -0.091520 -0.940625 -0.074268 -0.312741 0.984201 0.349313 -0.915068 -0.682798 -0.559691 0.607727
436 -0.013296 0.312324 -0.967452 -0.543501 -0.144418 0.393565 -0.896190 0.840193 -0.347740 -1.081490 -0.312847 0.076240 0.039074 0.423244 -0.897780 -0.100643 0.069463 -1.303861 0.408252 -0.118140 -0.013636 -0.087636 0.078803 0.820419 0.836841 -1.166358 -0.665262 0.334526 -0.318282 0.215853 0.269646 0.130511 -0.171280 0.089217 -0.978967 -0.183421 -0.937087 0.560609 -0.498471 -0.786193 -0.577847 -1.640315 -0.976238 0.202199 -0.174827 0.476262 -0.436437 0.520822 -0.269414 0.007921 1.166370 1.276546 0.386098 0.173472 -0.166901 0.012792 -0.185853 -0.599676 -0.211975 0.509724 -0.569589 -0.556297 -0.595854 -0.129975
2221 -0.131184 -0.372761 0.114717 -0.779969 -1.185808 -0.502903 -1.138562 1.248140 -0.724154 -0.353762 0.022543 0.581465 0.583446 -0.094655 0.495569 0.702199 -0.073337 -0.689724 -0.626631 -0.328920 -0.127505 -0.553271 0.376176 -1.201079 -0.269570 -1.253832 -0.267479 0.498848 0.163348 0.155860 -0.150669 0.575409 0.495061 0.198701 -0.231456 -0.788308 -0.888913 0.503213 0.015407 0.401915 -1.361072 -0.119462 -0.808375 0.295927 -0.368800 -0.025639 -0.481480 0.489477 -0.644683 0.159627 0.300399 -0.022399 -0.165464 -0.107866 -0.772678 0.237577 -1.149966 -0.363199 0.445051 -0.191429 1.103870 0.752384 -0.335090 -0.209604
423 0.751473 -0.501335 -0.848487 0.094492 0.154823 -0.887530 -0.943871 0.994743 -0.290256 0.078523 0.322262 -0.406912 -0.679794 -0.617126 -0.834502 1.056772 -0.171976 -0.099632 -0.567642 -0.351096 -0.294892 0.588100 -0.898408 0.227157 0.516041 -1.074475 -1.016576 -0.636658 0.747262 0.049777 -0.213008 -0.039400 -0.325449 -0.443836 0.135888 0.584143 -0.762428 0.404673 0.453893 0.091527 -1.250210 -0.817852 -0.419963 -0.225305 -0.282829 -0.716547 -0.226759 0.074955 -0.730394 0.736946 0.538758 -0.135115 0.660548 0.032940 -0.494437 0.284849 0.002046 -0.035588 -0.941513 0.146262 -0.367105 0.873583 -0.712054 -0.004284
2317 0.860497 -1.166676 -1.096279 -0.375104 -0.408423 -0.277419 -0.168100 0.899757 0.477061 -0.161735 0.387745 0.250493 -0.353914 -0.782679 -0.861830 -0.079117 0.236979 -0.725313 0.126875 -1.065256 -0.329536 0.758856 -0.136108 -0.051321 0.660292 -0.942653 -0.046609 0.433141 -0.074839 0.113388 -0.590610 0.390485 -0.333806 -0.175417 -0.519879 0.486231 -0.029028 0.558551 -0.407788 -0.224663 -1.182062 -1.255145 -0.465299 0.546970 0.083916 -0.251097 -0.790536 -0.159535 -0.722336 -0.327934 0.372278 0.228317 0.161979 0.368068 -0.512172 0.131658 -0.627794 0.640014 -0.300743 0.039445 -0.295568 0.290253 -1.414131 0.575922
2597 -0.373614 0.310452 -0.844654 -0.626126 -0.616407 0.447075 -0.840413 -0.183761 1.096239 -0.521003 0.612917 -0.683664 -0.919618 0.233982 -0.904132 -0.054464 0.251820 -1.192573 0.432074 -0.971472 1.125072 0.142616 0.034831 -0.383934 0.236342 -0.926090 0.029089 0.666236 -0.039275 0.766326 -0.167879 0.825142 -1.190141 -0.119244 -0.666457 0.156414 -0.492039 -0.167777 0.099540 0.377571 -0.255607 -0.604147 0.003296 -0.367813 -0.061614 0.892387 -0.524752 -0.534364 -0.285194 0.195664 0.635976 0.976229 -0.637492 0.460308 -0.332781 0.814155 -0.312889 -0.419959 -0.865721 0.097241 0.468669 0.341378 -0.833884 -0.044392
1776 -0.473433 0.148442 -0.586711 -0.577584 -0.856208 -0.067060 -0.505154 0.716944 -0.027853 0.012019 0.591079 -0.791843 0.036192 0.250364 -0.497636 0.719068 0.113524 -0.502124 0.056294 0.044294 -0.468827 -0.468457 -0.097438 0.000983 0.651430 0.191640 -0.230618 0.113356 0.706377 -0.428897 -1.207877 0.883687 -0.703550 -0.192556 -0.535322 -0.404904 -0.622653 0.091021 -0.449565 0.953439 -1.039542 -0.474644 -0.334968 0.347183 0.471604 -0.576306 -0.051628 0.442908 -0.390084 -0.658096 0.513315 0.640179 -0.256585 1.132329 -0.398503 -0.749999 -0.600669 0.323564 -0.194429 -0.706897 0.191256 0.976228 -0.996707 0.915341
2248 0.124683 -0.790792 0.040121 0.259855 -0.939079 -0.713784 0.851400 0.364001 -1.123442 -0.509611 0.137005 0.748243 0.259093 -0.334558 -0.701473 0.428738 0.411040 0.212660 0.123769 0.068656 0.418266 0.318124 0.112714 0.260204 0.023736 0.081904 -0.095964 0.270579 0.076091 -0.134359 -0.307702 0.272377 -0.664373 0.388426 -1.432666 -0.142775 1.212226 0.126345 0.154627 0.075485 -1.536705 -0.551039 0.454260 0.270295 -0.105248 -0.457374 -0.167447 -0.341840 0.331264 -0.127504 -0.699387 1.107159 -0.624328 0.065809 -0.068001 0.203436 -0.414784 -0.687960 -0.314385 -0.181602 0.099751 -0.282638 0.002281 -0.469624
2519 0.443491 0.201042 -0.704578 -0.385517 0.259275 -0.091083 -0.605959 -0.103619 0.815149 -0.043612 1.111239 -0.127479 -0.595950 -0.534432 -1.021906 -0.165010 0.350122 -0.121106 -0.051399 -0.604500 -0.371451 0.964713 -0.482528 -0.152631 0.401943 -0.349736 -0.237807 0.038039 0.182231 -0.510889 0.082087 0.366605 -0.781481 0.417347 0.222269 0.234591 -1.650396 0.719351 0.845440 0.292347 -1.259675 -0.673650 -0.454420 0.407127 -0.423281 -0.771094 -0.508152 -0.010341 -0.727938 -0.342101 0.023708 0.333674 -0.291243 0.451178 -0.245558 0.543294 0.445773 -0.786547 -0.140743 0.108621 -1.181645 0.700461 -0.891845 0.057947
623 0.697322 -0.081446 -0.584763 -1.250799 0.655133 -0.061435 0.214231 0.196450 -0.028421 -0.060582 -0.755502 0.671616 -1.144829 -0.033207 0.844196 0.652346 0.140219 -0.958237 0.274830 0.707697 -0.249309 -0.859242 -0.285485 0.184092 0.145915 -0.195769 0.279010 -0.197423 0.845222 0.211367 -0.084342 0.810271 0.016159 -0.085279 0.725594 -0.592151 0.397834 -0.613130 1.490047 1.547720 -0.207409 0.277478 -0.043543 -0.230123 0.819890 -0.160962 -0.048204 -0.203969 -0.155014 -0.360358 -1.036644 0.378956 0.560351 0.149249 0.154212 0.462712 0.149079 0.346274 -0.195291 0.361566 -0.053346 1.370304 -0.051007 0.468876
895 -0.950085 0.006310 0.419659 -0.370392 0.405522 -0.209092 0.304451 0.909519 -1.089806 -0.291821 0.144931 -0.200348 -0.494137 0.441299 -0.126878 -0.235632 0.648422 -0.202925 0.287168 1.383446 0.466137 -0.710570 -0.678734 0.598268 0.786198 1.312027 0.173704 -0.240593 0.294241 0.107718 -0.298765 0.131855 -0.348994 -0.544692 -0.028280 -0.317692 -0.255233 0.292889 -0.098911 1.024790 -0.398504 -1.377010 0.298749 -0.185970 0.296834 0.751096 -0.374800 -0.144334 0.292229 -1.200018 -0.485941 1.306168 0.083246 -0.079612 -0.315434 0.414631 -0.301585 0.278164 -0.031656 -0.605029 -0.624364 0.885163 -0.567646 0.462436
2486 -1.308740 0.232723 0.019213 -0.880413 0.210198 0.186808 0.663834 0.685668 0.309716 -0.327381 0.319151 -0.559543 -0.242495 -0.150613 -0.771377 -0.219418 -0.456287 0.091516 0.904351 0.591872 0.152468 -0.761047 -0.457255 0.726247 0.413152 0.841043 0.939395 0.388298 0.657506 -0.140150 0.150644 0.224551 -0.738008 -1.020194 0.468065 -0.780341 -0.610614 -0.455206 -0.368704 0.849500 0.823985 -0.626098 0.680859 0.036900 0.269760 0.689159 -0.758119 0.122340 0.471244 -1.236590 0.720833 1.012600 -0.655258 0.388817 -0.163811 -0.799445 -0.205224 -0.174542 -0.076476 -0.383961 0.703116 0.064512 0.763123 0.927852
1290 -0.525364 0.305180 -0.629123 -1.903172 0.073716 0.765090 0.919237 -0.025273 0.475586 -0.320278 0.705103 -0.534598 -0.780274 0.833444 -0.702158 0.424916 -0.261093 -0.352447 0.006065 0.106165 0.110762 -0.660440 -0.410943 0.115035 -0.361386 0.133050 -0.108962 -0.663281 0.311040 -0.286419 -0.496699 0.149647 -0.088617 0.364988 0.106602 0.028316 -0.206276 -0.356501 -0.115123 0.966583 0.601179 -0.204539 0.716334 0.089379 0.031418 0.144596 0.071999 -0.223573 0.525754 -0.196011 -1.178272 -0.153579 -0.379996 0.700916 0.839938 -0.272856 0.101325 -0.734324 -1.229584 0.264384 -0.104127 0.639653 -0.152945 1.372530
863 0.088502 -0.740355 0.207695 0.079852 0.881315 -0.897631 1.047228 1.211241 -0.003446 0.078667 -0.013126 0.043184 -0.730446 -0.810266 0.141666 -0.599515 0.532048 0.189393 -0.627881 0.801371 0.157219 0.071752 -0.508688 -0.190011 0.138014 0.323378 0.769971 -0.069465 0.529510 -0.035380 -0.213905 0.400682 -0.071550 -1.290603 0.395894 0.450508 -0.558795 0.017816 0.763628 1.146715 -0.753055 -0.392937 1.233499 -0.638897 0.396146 -0.526094 -1.339723 -0.004686 0.379362 -0.000543 -0.736335 0.008233 0.687045 0.066052 0.193187 0.493253 -0.202507 0.700630 -0.731847 0.283347 -0.325480 0.666801 -0.437791 -0.030722
1837 -0.958548 -0.386070 -0.435011 -0.415846 0.320734 0.420357 0.973875 1.286507 -0.201215 -0.116534 -0.049239 -1.062576 -0.573913 0.174836 -0.614429 0.296869 0.033497 -0.072810 -0.379368 0.544090 -0.149982 -0.845605 -0.604284 0.241770 0.080321 0.942108 0.190543 -0.408996 1.086188 -0.153964 -0.592862 0.074325 -0.750005 -0.655914 -0.004383 -0.234006 -0.200781 -0.145969 -0.261172 1.108107 -0.013777 0.113933 0.709039 -0.050494 0.368897 -0.080825 -0.533394 -0.051270 1.024781 -0.442898 -0.595411 0.387124 0.357442 0.169583 0.602566 -1.286665 -0.121620 0.231583 -1.525889 0.215600 0.358093 0.516460 0.092415 -0.432591
2327 -0.233937 0.608241 -0.456281 -1.626176 1.207116 0.301635 0.848636 0.648187 -0.597344 -0.337281 0.474961 -0.319411 -0.687234 0.173717 -0.252312 0.171217 -0.158910 -0.477292 0.402932 0.908473 -0.293709 -0.711253 -1.064423 0.729210 -0.212169 -0.381243 -0.211234 -0.366809 0.621339 0.122140 0.509873 0.051646 -0.140358 -0.576846 -0.094964 -0.243429 -0.500979 -0.715799 0.265585 0.864077 0.293062 -0.193063 0.613044 -0.694717 0.425301 0.894396 -0.545443 -0.402014 0.010662 -1.119696 -0.252481 1.083907 0.085647 1.015547 0.928122 0.289641 -0.136456 0.534740 -1.041945 0.063930 0.485907 -0.640435 0.256559 0.175076
1849 -1.244458 -0.209175 -0.063746 -0.226966 0.366544 -0.312584 -0.345040 -0.390775 -0.263480 -0.834011 -0.352750 0.507843 -1.837093 0.876185 0.079864 -0.064856 -0.187538 -0.672059 -0.283213 0.575633 -0.338401 0.714992 -0.585240 -0.483060 0.788537 0.504350 0.634101 0.341101 0.111683 0.278822 -0.643856 0.144352 -0.227530 -0.782715 0.765317 -0.560360 0.090136 0.502332 0.050264 0.483109 0.773716 -0.502984 -0.924240 0.553120 0.479395 -0.088622 0.316966 -0.258150 0.158630 0.492663 -0.232871 0.901511 0.218377 -0.592952 0.130444 -0.764983 -0.106447 -0.246477 -0.371974 -0.552062 -0.342583 0.355646 0.395551 -0.905396
1881 -0.257418 0.845714 0.410399 -1.022212 -0.514513 0.552469 -0.551449 0.426245 -0.546570 -0.490183 0.588489 -0.314979 0.351241 0.951476 -0.515729 -0.096516 0.418371 -0.408405 -0.688717 0.204646 -0.367966 -0.837141 -0.077306 -0.981817 0.672319 0.995968 -0.829534 -0.622886 -0.761893 0.421586 -0.903673 0.240063 -0.725008 0.271626 -0.800888 -0.053034 -0.286685 0.243469 -0.328605 0.485504 -0.243826 0.864504 -0.386765 0.097548 0.310234 -0.620463 1.021961 -0.182659 0.503101 -0.735452 -1.203032 0.957931 -0.010981 -0.416370 0.339083 -0.074477 -0.088961 0.426399 -0.600538 -0.037358 0.673380 0.395617 -0.247043 -0.793771
